{"learner":{"attributes":{"scikit_learn":"{\"_estimator_type\": \"regressor\"}"},"feature_names":[],"feature_types":[],"gradient_booster":{"model":{"gbtree_model_param":{"num_parallel_tree":"1","num_trees":"20"},"iteration_indptr":[0,1,2,3,4,5,6,7,8,9,10,11,12,13,14,15,16,17,18,19,20],"tree_info":[0,0,0,0,0,0,0,0,0,0,0,0,0,0,0,0,0,0,0,0],"trees":[{"base_weights":[-7.46729E-7,8.787875E0,-1.8842037E0,4.9877E0,1.1535235E1,-2.5086024E0,1.609948E1,1.0529345E1,3.589702E-2,1.115057E1,1.794268E1,1.5153496E0,-4.147204E0,1.4962925E1,6.3733525E0,1.3550476E1,7.409977E0,-1.7766114E0,6.9208755E0,1.0569293E1,1.4086838E1,1.9726456E1,5.0009155E0,5.549195E0,-9.9402565E-1,-5.9414945E0,-1.8088353E0,1.4287278E1,5.907442E0,1.0809096E1,1.6825697E1,8.131114E0,1.8821688E0,-4.2323513E0,5.678727E-1,7.8543425E0,1.8062501E0,1.1477385E1,9.464332E0,1.3435203E1,6.0556364E0,2.8571372E0,5.998003E0,1.6293391E0,1.0362496E1,-3.7585473E0,2.6791968E0,-7.755036E0,-3.5915654E0,2.0465395E0,-3.8054588E0,1.5267255E1,1.2751151E1,1.7998791E0,1.2254643E1,2.034753E1,1.1651293E1,1.8877703E0,8.939077E0,-4.886334E0,-3.8420641E0,1.3306775E0,-5.9035045E-1,1.8092784E0,2.54404E0,9.71852E0,1.2172196E1,-5.3276205E-1,9.578252E0,1.4426676E1,3.6306872E0,-5.90465E-1,4.1800094E0,1.710135E1,5.9198093E0,-6.168546E0,-8.435833E-1,-1.7657183E-1,6.3877482E0,-5.3394337E0,-9.184305E0,3.8118756E0,-6.2435884E0,7.854132E0,-3.3096695E-1,-5.345354E0,-1.3072516E0,1.6156467E1,1.3440398E1,2.6653259E0,1.3500468E1,2.5441065E0,1.3545659E1,5.855978E0,7.0925326E0,2.3486218E0,1.2937731E1,2.6020837E0,3.1415894E0,-5.871105E0,-4.1843867E0,-4.028493E0,-2.5505147E0,1.0316172E0,3.3870602E0,1.1680005E-1,-1.4109436E0,1.0581949E1,8.100215E0,4.5298934E0,1.1390183E1,-2.728739E0,3.5819893E0,1.0752237E1,9.099765E0,1.6502695E1,1.3726026E1,-7.356154E-1,4.9833264E0,3.1960542E0,1.1301403E1,1.4810455E1,1.9811085E1,2.8109536E0,1.2324007E1,-7.6912704E0,-4.8006754E0,-4.778745E0,3.3475423E0,1.5980232E0,-1.5308824E0,2.0095644E0,1.16151705E1,-1.9280005E-2,-7.9030023E0,-1.048603E1,-6.590204E0,1.0233713E1,8.956833E-1,-6.6041083E0,9.333961E-1,4.0419054E0,1.5201033E1,2.359173E0,-2.4993653E0,-2.7892754E0,-3.116552E0,5.7463326E0,-3.2465467E0,1.776661E1,1.4317548E1,2.6170564E0,1.37509165E1,1.2228402E1,4.337475E0,1.3036983E1,5.3978767E0,3.9570801E0,1.2821372E0,-6.2973647E0,-2.8598118E0,-3.4725244E0,-5.7258935E0,-5.5045943E0,-3.8353066E0,9.8608875E-1,-3.1940725E0,-3.418873E-1,1.4091822E0,3.7057436E0,-7.2620964E-1,9.561563E-1,-9.688563E-1,-2.1472831E-1,-2.0401611E0,1.0682297E1,1.4652996E0,2.0386481E0,2.5124743E0,1.5092717E1,1.0137602E1,5.547581E-1,-3.3714516E0,5.0237904E0,1.3967744E-1,1.1982307E1,8.767993E0,1.0306296E1,8.92351E0,3.0155487E0,5.3807755E0,1.4933746E1,3.709432E0,-2.1056511E0,-1.8080808E-1,5.428609E0,-1.787004E0,1.0518835E1,5.6958265E0,-1.1603225E0,1.49421625E1,1.9587097E0,2.0082378E1,4.7134805E0,1.0239662E0,1.6382473E1,9.601865E0,-6.441057E0,-1.0118274E1,-5.257109E0,-3.7646255E0,-1.4173714E0,-6.3562903E0,1.0443085E1,-4.4241095E-1,-1.6593921E0,1.2905777E1,-2.0832E0,-1.4112711E0,2.7637296E0,7.8854287E-1,4.4244385E0,9.272119E0,3.4291136E-1,-4.586721E-1,-9.734078E0,-6.5757275E0,-1.0851041E1,-3.0377543E0,-1.15987835E1,-4.0950236E0,5.480835E0,1.04088125E1,-1.71529E0,4.2311497E0,-8.1377325E0,-5.6253276E0,3.0931595E-1,4.893871E0,1.263541E0,4.2540884E0,3.5587096E0,1.5344881E1,4.6357856E0,2.074171E0,-5.3831453E0,2.6161327E0,-6.400114E-1,-5.4127502E0,2.1159449E0,9.397981E0,-4.207755E0,-1.8096387E0,1.607613E0,1.8067785E1,9.919288E0,1.5090774E1,1.0668022E1,4.271828E0,8.547581E-1,1.228831E1,3.9319916E0,1.3396775E0,-1.2541426E0,-2.0812294E0,-1.4523872E0,-3.791734E-1,-1.3204755E0,-4.7746775E-1,-1.3836808E0,-2.4814358E0,-1.03309E0,-2.3244517E0,-5.982438E-1,-1.206312E0,-1.2387086E-2,6.0713714E-1,-6.9683284E-1,-1.9166734E0,1.1119177E-1,-9.19735E-1,7.254883E-2,5.8054316E-1,7.0375216E-1,1.4004068E0,-6.603226E-1,5.547581E-1,5.05563E-1,-3.3835313E-1,-7.028084E-1,-1.0354837E-1,-1.5463708E-1,1.0396775E0,1.9046924E-1,-7.489759E-1,3.2202098E0,1.2821372E0,4.5899277E0,2.7085645E0,3.1602213E0,2.8520272E0,-2.2603226E0,-4.166734E-1,1.9396775E0,1.0475808E-1,2.403564E0,3.9206364E0,1.6758945E0,2.8792617E0,2.1155484E0,3.207421E0,2.7188866E0,2.403554E0,3.7188137E0,4.846723E0,-4.5091632E-1,-1.1891129E0,-3.7854555E-1,1.8205586E-1,6.947914E-1,3.6820672E0,-4.7155833E-1,-9.1265625E-1,3.3057415E0,1.8670566E0,4.3202734E0,5.61203E0,3.9677434E-2,9.396775E-1,7.047581E-1,6.042813E0,1.359837E0,4.8821373E0,-7.461683E-1,1.4594511E0,5.547581E-1,4.948717E0,1.547745E0,4.9660907E0,-2.0057178E0,-1.362771E0,-3.4733984E0,-7.6512384E-1,-1.1861389E0,-1.9654315E0,-5.8471394E-1,-1.6990848E0,-1.9307049E-1,-5.546354E-1,-2.5333147E0,-1.5128534E0,3.0151584E0,4.4901714E0,-4.2684886E-1,6.708362E-1,-5.843367E-1,-3.3588064E-1,7.137108E-3,3.9691002E0,-8.1709445E-1,-3.889238E-1,4.6761295E-1,-4.3026122E-1,5.6899875E-1,1.115948E0,-5.77176E-1,1.2246301E0,3.7981937E0,2.5516512E0,-1.4602695E-1,2.0498395E-1,6.686172E-2,-2.0880295E-1,-2.5086672E0,-3.2747917E0,-1.5244828E0,-2.3872902E0,-3.4875062E0,-2.7927623E0,-2.477019E0,-4.5724383E-1,-3.7256134E0,-3.2240014E0,-5.2063566E-1,-1.9171567E0,4.8856452E-1,2.8833268E0,9.2459685E-1,3.1479344E0,-4.8383588E-1,-2.0314355E0,-9.329436E-1,1.3330364E0,-1.9157115E0,-2.8280118E0,-1.3989141E0,-1.951672E0,1.7339214E0,-7.2933644E-2,4.1427824E-1,-6.78629E-2,9.5385486E-1,1.3371875E0,1.3571372E0,-4.524193E-2,4.430715E0,5.582455E0,2.865726E-1,2.1281176E0,7.259284E-1,3.4534097E-1,-2.0402696E0,-1.0945343E0,1.2818787E0,7.1678305E-1,-5.4074126E-1,7.1846E-1,-3.0362322E0,-1.3948643E-1,1.8206636E0,3.733304E-1,-1.7603227E0,2.8648932E0,-1.2696793E0,3.2547581E0,-1.5482567E-1,-8.199755E-1,4.6305094E0,6.078224E0,8.547581E-1,3.0308416E0,4.5513153E0,8.547581E-1,3.3640404E0,1.5821372E0,3.857022E0,2.9937656E0],"categories":[],"categories_nodes":[],"categories_segments":[],"categories_sizes":[],"default_left":[0,0,0,0,0,0,0,0,0,0,0,0,0,0,0,0,0,0,0,0,0,0,0,0,0,0,0,0,0,0,0,0,0,0,0,0,0,0,0,0,0,0,0,0,0,0,0,0,0,0,0,0,0,0,0,0,0,0,0,0,0,0,0,0,0,0,0,0,0,0,0,0,0,0,0,0,0,0,0,0,0,0,0,0,0,0,0,0,0,0,0,0,0,0,0,0,0,0,0,0,0,0,0,0,0,0,0,0,0,0,0,0,0,0,0,0,0,0,0,0,0,0,0,0,0,0,0,0,0,0,0,0,0,0,0,0,0,0,0,0,0,0,0,0,0,0,0,0,0,0,0,0,0,0,0,0,0,0,0,0,0,0,0,0,0,0,0,0,0,0,0,0,0,0,0,0,0,0,0,0,0,0,0,0,0,0,0,0,0,0,0,0,0,0,0,0,0,0,0,0,0,0,0,0,0,0,0,0,0,0,0,0,0,0,0,0,0,0,0,0,0,0,0,0,0,0,0,0,0,0,0,0,0,0,0,0,0,0,0,0,0,0,0,0,0,0,0,0,0,0,0,0,0,0,0,0,0,0,0,0,0,0,0,0,0,0,0,0,0,0,0,0,0,0,0,0,0,0,0,0,0,0,0,0,0,0,0,0,0,0,0,0,0,0,0,0,0,0,0,0,0,0,0,0,0,0,0,0,0,0,0,0,0,0,0,0,0,0,0,0,0,0,0,0,0,0,0,0,0,0,0,0,0,0,0,0,0,0,0,0,0,0,0,0,0,0,0,0,0,0,0,0,0,0,0,0,0,0,0,0,0,0,0,0,0,0,0,0,0,0,0,0,0,0,0,0,0,0,0,0,0,0,0,0,0,0,0,0,0,0,0,0,0,0,0,0,0,0,0,0,0,0,0,0,0,0,0,0,0,0,0,0,0,0,0,0,0,0,0,0,0,0,0,0,0,0,0,0,0,0,0,0,0,0,0,0,0],"id":0,"left_children":[1,3,5,7,9,11,13,15,17,19,21,23,25,27,-1,29,31,33,35,37,39,41,-1,43,45,47,49,51,-1,53,55,57,-1,59,61,63,-1,65,67,69,-1,-1,-1,71,73,75,77,79,81,83,85,87,89,-1,91,93,95,-1,97,99,101,103,105,-1,-1,107,109,111,113,115,-1,117,119,121,123,125,127,129,131,133,135,137,139,141,143,145,147,149,151,-1,153,-1,155,-1,-1,-1,157,-1,-1,159,161,163,165,167,169,171,173,175,177,-1,179,181,183,185,187,189,191,193,-1,195,197,199,201,203,205,207,209,211,213,215,217,219,221,223,225,227,229,231,233,235,237,239,241,243,245,-1,247,249,251,253,255,-1,257,259,-1,261,-1,-1,-1,263,265,267,269,271,273,275,277,279,281,283,285,287,289,291,293,295,-1,-1,-1,297,299,-1,301,303,-1,305,307,309,311,-1,-1,313,-1,315,317,319,321,323,-1,-1,325,327,329,331,333,335,337,339,341,343,345,347,349,351,353,355,357,359,361,363,365,-1,367,369,371,373,375,377,379,381,383,385,387,389,391,393,395,397,-1,399,401,403,405,407,409,411,413,415,417,419,421,423,425,-1,427,429,431,433,-1,-1,435,-1,-1,-1,-1,-1,-1,-1,-1,-1,-1,-1,-1,-1,-1,-1,-1,-1,-1,-1,-1,-1,-1,-1,-1,-1,-1,-1,-1,-1,-1,-1,-1,-1,-1,-1,-1,-1,-1,-1,-1,-1,-1,-1,-1,-1,-1,-1,-1,-1,-1,-1,-1,-1,-1,-1,-1,-1,-1,-1,-1,-1,-1,-1,-1,-1,-1,-1,-1,-1,-1,-1,-1,-1,-1,-1,-1,-1,-1,-1,-1,-1,-1,-1,-1,-1,-1,-1,-1,-1,-1,-1,-1,-1,-1,-1,-1,-1,-1,-1,-1,-1,-1,-1,-1,-1,-1,-1,-1,-1,-1,-1,-1,-1,-1,-1,-1,-1,-1,-1,-1,-1,-1,-1,-1,-1,-1,-1,-1,-1,-1,-1,-1,-1,-1,-1,-1,-1,-1,-1,-1,-1,-1,-1,-1,-1,-1,-1,-1,-1,-1,-1,-1,-1,-1,-1,-1,-1,-1,-1,-1,-1,-1,-1,-1,-1,-1,-1,-1,-1,-1,-1,-1,-1,-1,-1,-1],"loss_changes":[6.0397475E5,6.7179E4,3.373143E5,7.4200445E4,9.010594E3,1.9141348E5,5.5765E3,1.1924641E4,1.7844904E4,5.8726562E3,1.4800781E2,8.5044055E4,8.654259E4,2.3671719E3,0E0,5.627289E3,4.65125E2,6.519829E3,2.0307812E2,2.8504375E3,2.0337734E3,3.286914E1,0E0,6.0774023E4,5.2611434E4,4.9714656E4,6.896406E4,9.0271875E2,0E0,2.3945664E3,5.102383E3,5.1120508E2,0E0,1.22375E2,5.1321454E2,1.1203125E2,0E0,1.854125E3,1.5266406E3,5.2185156E2,0E0,0E0,0E0,1.0063822E4,4.3190016E4,2.0760871E4,2.3565586E4,2.2692875E4,9.988282E4,4.22124E4,2.2697883E4,4.976172E2,7.203047E2,0E0,1.2104922E3,1.0171875E1,4.9372852E2,0E0,1.619336E1,1.1575781E2,7.423926E1,2.117497E2,1.3421014E2,0E0,0E0,5.5983594E2,2.4675938E3,1.543487E2,6.4421875E2,2.0548438E2,0E0,2.3866877E3,5.7587773E3,3.2698125E3,1.7346549E4,3.3331992E3,2.2099797E4,3.025864E3,2.2130902E4,3.3428008E4,1.3900719E4,2.5122889E4,9.696156E3,2.480971E4,1.2664146E4,3.2131703E4,3.0823727E4,6.0725E2,9.974609E1,0E0,1.16828125E2,0E0,2.201289E2,0E0,0E0,0E0,1.3835742E2,0E0,0E0,8.724512E1,1.1399243E2,6.586279E1,1.1012207E2,1.5968808E2,6.0367645E1,1.1483293E2,8.009865E1,1.1819922E2,2.225586E0,0E0,4.0858672E3,3.859971E1,2.462033E1,8.1510547E2,1.08984375E2,4.6689648E2,1.9017969E2,7.171593E2,0E0,8.108665E3,4.0166895E2,8.327031E2,1.2198984E3,1.9976514E3,2.9912969E3,2.2530117E3,3.8452734E2,3.65517E3,1.745738E4,2.0095975E4,4.422937E1,4.8403052E2,3.100496E3,1.2715422E2,3.9557734E3,7.451625E3,1.7261277E4,2.9165625E2,8.054201E3,5.3070625E3,1.7226023E3,3.4008398E2,4.5283594E2,6.191094E2,1.7745951E4,0E0,1.32805E4,6.422968E3,2.4329102E3,4.6746094E2,3.2983008E2,0E0,5.7429688E1,2.6796875E1,0E0,5.132617E1,0E0,0E0,0E0,6.719971E1,3.182795E1,1.4328223E2,6.673718E1,1.25907715E2,8.533789E1,8.612465E0,9.650604E1,1.3117314E2,1.4750183E2,4.2702454E1,1.9263708E1,1.0977436E2,4.631848E1,4.384391E1,8.705249E1,5.0941406E1,0E0,0E0,0E0,1.4938672E2,7.14375E1,0E0,7.206769E1,2.4701614E1,0E0,8.8746484E2,3.3700977E2,6.74834E1,3.3164062E1,0E0,0E0,1.5945703E2,0E0,2.9858984E2,5.7380475E2,1.0688413E4,5.6248047E1,1.3127539E2,0E0,0E0,3.68375E2,1.0302879E1,2.2655469E2,5.2155273E2,4.1253423E3,1.5548438E2,5.2576553E3,2.0513086E2,2.820588E3,9.7106445E2,9.026194E2,7.29202E1,1.2464355E3,2.5094531E2,1.1166405E3,6.382495E1,5.097578E2,5.9456116E1,4.2420288E1,2.631985E2,1.821385E3,0E0,5.547285E2,1.2402062E2,5.854911E1,1.0323438E3,1.9458359E3,3.023125E3,1.0143485E3,1.8792969E2,5.004491E3,2.5483353E2,2.1658203E2,2.5806396E2,6.465781E2,3.0720938E3,1.8162188E3,5.272357E2,0E0,7.832077E0,1.0461426E2,1.858213E1,2.8702344E2,9.6120483E2,2.7250415E2,1.8664473E3,1.5291138E2,3.9732295E3,2.8228023E4,8.364779E2,6.163242E2,4.3635352E2,8.4685645E2,0E0,5.359844E2,2.3549805E0,7.273633E1,8.534424E0,0E0,0E0,1.4769531E1,0E0,0E0,0E0,0E0,0E0,0E0,0E0,0E0,0E0,0E0,0E0,0E0,0E0,0E0,0E0,0E0,0E0,0E0,0E0,0E0,0E0,0E0,0E0,0E0,0E0,0E0,0E0,0E0,0E0,0E0,0E0,0E0,0E0,0E0,0E0,0E0,0E0,0E0,0E0,0E0,0E0,0E0,0E0,0E0,0E0,0E0,0E0,0E0,0E0,0E0,0E0,0E0,0E0,0E0,0E0,0E0,0E0,0E0,0E0,0E0,0E0,0E0,0E0,0E0,0E0,0E0,0E0,0E0,0E0,0E0,0E0,0E0,0E0,0E0,0E0,0E0,0E0,0E0,0E0,0E0,0E0,0E0,0E0,0E0,0E0,0E0,0E0,0E0,0E0,0E0,0E0,0E0,0E0,0E0,0E0,0E0,0E0,0E0,0E0,0E0,0E0,0E0,0E0,0E0,0E0,0E0,0E0,0E0,0E0,0E0,0E0,0E0,0E0,0E0,0E0,0E0,0E0,0E0,0E0,0E0,0E0,0E0,0E0,0E0,0E0,0E0,0E0,0E0,0E0,0E0,0E0,0E0,0E0,0E0,0E0,0E0,0E0,0E0,0E0,0E0,0E0,0E0,0E0,0E0,0E0,0E0,0E0,0E0,0E0,0E0,0E0,0E0,0E0,0E0,0E0,0E0,0E0,0E0,0E0,0E0,0E0,0E0,0E0,0E0,0E0,0E0,0E0,0E0,0E0,0E0,0E0,0E0,0E0,0E0,0E0,0E0],"parents":[2147483647,0,0,1,1,2,2,3,3,4,4,5,5,6,6,7,7,8,8,9,9,10,10,11,11,12,12,13,13,15,15,16,16,17,17,18,18,19,19,20,20,21,21,23,23,24,24,25,25,26,26,27,27,29,29,30,30,31,31,33,33,34,34,35,35,37,37,38,38,39,39,43,43,44,44,45,45,46,46,47,47,48,48,49,49,50,50,51,51,52,52,54,54,55,55,56,56,58,58,59,59,60,60,61,61,62,62,65,65,66,66,67,67,68,68,69,69,71,71,72,72,73,73,74,74,75,75,76,76,77,77,78,78,79,79,80,80,81,81,82,82,83,83,84,84,85,85,86,86,87,87,88,88,90,90,92,92,96,96,99,99,100,100,101,101,102,102,103,103,104,104,105,105,106,106,107,107,108,108,110,110,111,111,112,112,113,113,114,114,115,115,116,116,117,117,119,119,120,120,121,121,122,122,123,123,124,124,125,125,126,126,127,127,128,128,129,129,130,130,131,131,132,132,133,133,134,134,135,135,136,136,137,137,138,138,139,139,140,140,141,141,142,142,143,143,144,144,146,146,147,147,148,148,149,149,150,150,152,152,153,153,155,155,159,159,160,160,161,161,162,162,163,163,164,164,165,165,166,166,167,167,168,168,169,169,170,170,171,171,172,172,173,173,174,174,175,175,179,179,180,180,182,182,183,183,185,185,186,186,187,187,188,188,191,191,193,193,194,194,195,195,196,196,197,197,200,200,201,201,202,202,203,203,204,204,205,205,206,206,207,207,208,208,209,209,210,210,211,211,212,212,213,213,214,214,215,215,216,216,217,217,218,218,219,219,220,220,222,222,223,223,224,224,225,225,226,226,227,227,228,228,229,229,230,230,231,231,232,232,233,233,234,234,235,235,236,236,237,237,239,239,240,240,241,241,242,242,243,243,244,244,245,245,246,246,247,247,248,248,249,249,250,250,251,251,252,252,254,254,255,255,256,256,257,257,260,260],"right_children":[2,4,6,8,10,12,14,16,18,20,22,24,26,28,-1,30,32,34,36,38,40,42,-1,44,46,48,50,52,-1,54,56,58,-1,60,62,64,-1,66,68,70,-1,-1,-1,72,74,76,78,80,82,84,86,88,90,-1,92,94,96,-1,98,100,102,104,106,-1,-1,108,110,112,114,116,-1,118,120,122,124,126,128,130,132,134,136,138,140,142,144,146,148,150,152,-1,154,-1,156,-1,-1,-1,158,-1,-1,160,162,164,166,168,170,172,174,176,178,-1,180,182,184,186,188,190,192,194,-1,196,198,200,202,204,206,208,210,212,214,216,218,220,222,224,226,228,230,232,234,236,238,240,242,244,246,-1,248,250,252,254,256,-1,258,260,-1,262,-1,-1,-1,264,266,268,270,272,274,276,278,280,282,284,286,288,290,292,294,296,-1,-1,-1,298,300,-1,302,304,-1,306,308,310,312,-1,-1,314,-1,316,318,320,322,324,-1,-1,326,328,330,332,334,336,338,340,342,344,346,348,350,352,354,356,358,360,362,364,366,-1,368,370,372,374,376,378,380,382,384,386,388,390,392,394,396,398,-1,400,402,404,406,408,410,412,414,416,418,420,422,424,426,-1,428,430,432,434,-1,-1,436,-1,-1,-1,-1,-1,-1,-1,-1,-1,-1,-1,-1,-1,-1,-1,-1,-1,-1,-1,-1,-1,-1,-1,-1,-1,-1,-1,-1,-1,-1,-1,-1,-1,-1,-1,-1,-1,-1,-1,-1,-1,-1,-1,-1,-1,-1,-1,-1,-1,-1,-1,-1,-1,-1,-1,-1,-1,-1,-1,-1,-1,-1,-1,-1,-1,-1,-1,-1,-1,-1,-1,-1,-1,-1,-1,-1,-1,-1,-1,-1,-1,-1,-1,-1,-1,-1,-1,-1,-1,-1,-1,-1,-1,-1,-1,-1,-1,-1,-1,-1,-1,-1,-1,-1,-1,-1,-1,-1,-1,-1,-1,-1,-1,-1,-1,-1,-1,-1,-1,-1,-1,-1,-1,-1,-1,-1,-1,-1,-1,-1,-1,-1,-1,-1,-1,-1,-1,-1,-1,-1,-1,-1,-1,-1,-1,-1,-1,-1,-1,-1,-1,-1,-1,-1,-1,-1,-1,-1,-1,-1,-1,-1,-1,-1,-1,-1,-1,-1,-1,-1,-1,-1,-1,-1,-1,-1],"split_conditions":[-4.1733766E-1,-8.079437E-2,2.2081115E0,2.8412336E-1,7.066919E0,-2.8676933E-2,3.9737294E0,-2.8676933E-2,1.3556894E0,2.2081115E0,-2.8676933E-2,2.8412336E-1,9.7566575E-2,7.066919E0,6.3733525E0,8.608401E-1,-2.997595E-1,9.7566575E-2,-2.8676933E-2,2.8412336E-1,3.9737294E0,-4.2514837E-1,5.0009155E0,-8.079437E-2,9.7566575E-2,-8.079437E-2,2.8412336E-1,-2.8676933E-2,5.907442E0,-2.997595E-1,1.4411398E0,9.7566575E-2,1.8821688E0,4.4249362E-1,-1.0269725E0,-2.997595E-1,1.8062501E0,9.7566575E-2,-1.6448165E0,2.8412336E-1,6.0556364E0,2.8571372E0,5.998003E0,9.7566575E-2,-2.997595E-1,1.3556894E0,1.3556894E0,2.8412336E-1,-2.997595E-1,-2.997595E-1,-8.079437E-2,2.8412336E-1,-8.079437E-2,1.7998791E0,9.7566575E-2,3.9737294E0,9.7566575E-2,1.8877703E0,2.2081115E0,-1.3317901E0,1.5213042E0,1.2842625E0,-2.1020329E-1,1.8092784E0,2.54404E0,-2.997595E-1,-2.997595E-1,1.2516993E0,-2.8676933E-2,-2.8676933E-2,3.6306872E0,7.066919E0,1.4411398E0,9.7566575E-2,9.7566575E-2,-8.079437E-2,-8.079437E-2,-2.997595E-1,-8.079437E-2,-2.997595E-1,1.3556894E0,2.8412336E-1,2.3566422E0,-8.079437E-2,8.608401E-1,-2.997595E-1,-2.997595E-1,-2.997595E-1,-8.079437E-2,2.6653259E0,9.7566575E-2,2.5441065E0,7.066919E0,5.855978E0,7.0925326E0,2.3486218E0,6.290608E0,2.6020837E0,3.1415894E0,-2.5091004E-1,1.3249147E0,9.191418E-2,-8.664493E-1,-5.7697463E-1,1.6657114E0,-7.2215515E-1,7.857855E-4,1.6265558E0,-5.115416E-1,4.5298934E0,-2.8676933E-2,-4.605994E-1,4.3215767E-1,8.608401E-1,-3.4655123E0,-7.6671734E-2,-2.997595E-1,4.4249362E-1,4.9833264E0,8.608401E-1,7.066919E0,-4.8408437E0,-4.8408437E0,8.608401E-1,8.608401E-1,8.608401E-1,8.608401E-1,-2.997595E-1,-2.997595E-1,-8.079437E-2,1.1346053E-1,8.608401E-1,-2.997595E-1,2.755229E-1,4.4249362E-1,2.3566422E0,-2.997595E-1,-2.0842538E0,1.3556894E0,4.4249362E-1,7.066919E0,-1.1252021E-1,-3.6708086E0,-1.1252021E-1,1.4411398E0,-2.7892754E0,8.608401E-1,1.3556894E0,1.3556894E0,-8.079437E-2,-5.993867E-1,2.6170564E0,-7.73625E-1,-4.8408437E0,4.337475E0,6.619972E-1,5.3978767E0,3.9570801E0,1.2821372E0,-4.605994E-1,-5.115416E-1,5.075887E-1,3.2220834E-1,-7.73625E-1,1.13641195E-1,4.3215767E-1,-7.6671734E-2,6.6299933E-1,2.805403E-1,2.4634501E-1,5.034336E-1,6.6299933E-1,-3.330113E-3,1.2060953E0,9.3809426E-2,8.352164E-1,1.4652996E0,2.0386481E0,2.5124743E0,6.5914005E-1,8.608401E-1,5.547581E-1,-3.6708086E0,1.599324E-1,1.3967744E-1,9.7566575E-2,1.3556894E0,-4.100952E-1,1.5213042E0,3.0155487E0,5.3807755E0,9.7566575E-2,3.709432E0,7.09468E-1,-2.997595E-1,-2.997595E-1,1.5213042E0,-8.2589515E-2,5.6958265E0,-1.1603225E0,7.066919E0,1.0130929E0,-7.874427E-1,7.066919E0,1.4411398E0,-1.1252021E-1,1.4411398E0,-2.997595E-1,1.4411398E0,-2.997595E-1,1.4411398E0,-5.115416E-1,4.4249362E-1,7.066919E0,1.4411398E0,-8.61798E-2,-2.0842538E0,-9.524438E-2,1.1346372E-1,-2.997595E-1,1.4411398E0,4.4244385E0,9.889849E-2,4.4249362E-1,-1.1267275E0,8.608401E-1,8.608401E-1,8.608401E-1,-8.797495E-2,4.4249362E-1,8.608401E-1,2.4963236E-1,-1.1252021E-1,3.8694222E0,-2.0842538E0,2.8412336E-1,2.8412336E-1,-8.7141377E-1,4.893871E0,6.5879697E-1,-1.1298746E0,1.0959526E0,7.066919E0,-8.079437E-2,-8.079437E-2,-8.079437E-2,-1.1252021E-1,1.3556894E0,1.4411398E0,-1.1252021E-1,-3.6708086E0,7.066919E0,8.608401E-1,1.607613E0,9.7566575E-2,-5.788677E-1,1.6943715E0,1.1545609E0,4.271828E0,8.547581E-1,1.3556894E0,3.9319916E0,1.3396775E0,-1.2541426E0,-2.0812294E0,-1.4523872E0,-3.791734E-1,-1.3204755E0,-4.7746775E-1,-1.3836808E0,-2.4814358E0,-1.03309E0,-2.3244517E0,-5.982438E-1,-1.206312E0,-1.2387086E-2,6.0713714E-1,-6.9683284E-1,-1.9166734E0,1.1119177E-1,-9.19735E-1,7.254883E-2,5.8054316E-1,7.0375216E-1,1.4004068E0,-6.603226E-1,5.547581E-1,5.05563E-1,-3.3835313E-1,-7.028084E-1,-1.0354837E-1,-1.5463708E-1,1.0396775E0,1.9046924E-1,-7.489759E-1,3.2202098E0,1.2821372E0,4.5899277E0,2.7085645E0,3.1602213E0,2.8520272E0,-2.2603226E0,-4.166734E-1,1.9396775E0,1.0475808E-1,2.403564E0,3.9206364E0,1.6758945E0,2.8792617E0,2.1155484E0,3.207421E0,2.7188866E0,2.403554E0,3.7188137E0,4.846723E0,-4.5091632E-1,-1.1891129E0,-3.7854555E-1,1.8205586E-1,6.947914E-1,3.6820672E0,-4.7155833E-1,-9.1265625E-1,3.3057415E0,1.8670566E0,4.3202734E0,5.61203E0,3.9677434E-2,9.396775E-1,7.047581E-1,6.042813E0,1.359837E0,4.8821373E0,-7.461683E-1,1.4594511E0,5.547581E-1,4.948717E0,1.547745E0,4.9660907E0,-2.0057178E0,-1.362771E0,-3.4733984E0,-7.6512384E-1,-1.1861389E0,-1.9654315E0,-5.8471394E-1,-1.6990848E0,-1.9307049E-1,-5.546354E-1,-2.5333147E0,-1.5128534E0,3.0151584E0,4.4901714E0,-4.2684886E-1,6.708362E-1,-5.843367E-1,-3.3588064E-1,7.137108E-3,3.9691002E0,-8.1709445E-1,-3.889238E-1,4.6761295E-1,-4.3026122E-1,5.6899875E-1,1.115948E0,-5.77176E-1,1.2246301E0,3.7981937E0,2.5516512E0,-1.4602695E-1,2.0498395E-1,6.686172E-2,-2.0880295E-1,-2.5086672E0,-3.2747917E0,-1.5244828E0,-2.3872902E0,-3.4875062E0,-2.7927623E0,-2.477019E0,-4.5724383E-1,-3.7256134E0,-3.2240014E0,-5.2063566E-1,-1.9171567E0,4.8856452E-1,2.8833268E0,9.2459685E-1,3.1479344E0,-4.8383588E-1,-2.0314355E0,-9.329436E-1,1.3330364E0,-1.9157115E0,-2.8280118E0,-1.3989141E0,-1.951672E0,1.7339214E0,-7.2933644E-2,4.1427824E-1,-6.78629E-2,9.5385486E-1,1.3371875E0,1.3571372E0,-4.524193E-2,4.430715E0,5.582455E0,2.865726E-1,2.1281176E0,7.259284E-1,3.4534097E-1,-2.0402696E0,-1.0945343E0,1.2818787E0,7.1678305E-1,-5.4074126E-1,7.1846E-1,-3.0362322E0,-1.3948643E-1,1.8206636E0,3.733304E-1,-1.7603227E0,2.8648932E0,-1.2696793E0,3.2547581E0,-1.5482567E-1,-8.199755E-1,4.6305094E0,6.078224E0,8.547581E-1,3.0308416E0,4.5513153E0,8.547581E-1,3.3640404E0,1.5821372E0,3.857022E0,2.9937656E0],"split_indices":[1,28,11,7,12,8,11,8,7,11,8,7,0,12,0,6,6,0,8,7,11,0,0,28,0,28,7,8,0,6,6,0,0,11,1,6,0,0,0,7,0,0,0,0,6,7,7,7,6,6,28,7,28,0,0,11,0,0,11,1,19,15,15,0,0,6,6,10,8,8,0,12,6,0,0,28,28,6,28,6,7,7,8,28,6,6,6,6,28,0,0,0,12,0,0,0,22,0,0,0,9,5,2,2,0,1,27,2,19,0,8,9,9,6,1,0,6,11,0,6,12,2,2,6,6,6,6,6,6,28,3,6,6,5,11,8,6,2,7,11,12,1,2,1,6,0,6,7,7,28,0,0,0,2,0,3,0,0,0,9,19,4,5,0,3,9,0,13,6,3,2,13,19,2,5,5,0,0,0,3,6,0,2,3,0,0,7,10,19,0,0,0,0,15,6,6,19,28,0,0,12,19,7,12,6,1,6,6,6,6,6,19,11,12,6,28,2,15,3,6,6,0,5,11,14,6,6,6,28,11,6,15,1,28,2,7,7,4,0,3,15,4,12,28,28,28,1,7,6,1,2,12,6,0,0,2,2,2,0,0,7,0,0,0,0,0,0,0,0,0,0,0,0,0,0,0,0,0,0,0,0,0,0,0,0,0,0,0,0,0,0,0,0,0,0,0,0,0,0,0,0,0,0,0,0,0,0,0,0,0,0,0,0,0,0,0,0,0,0,0,0,0,0,0,0,0,0,0,0,0,0,0,0,0,0,0,0,0,0,0,0,0,0,0,0,0,0,0,0,0,0,0,0,0,0,0,0,0,0,0,0,0,0,0,0,0,0,0,0,0,0,0,0,0,0,0,0,0,0,0,0,0,0,0,0,0,0,0,0,0,0,0,0,0,0,0,0,0,0,0,0,0,0,0,0,0,0,0,0,0,0,0,0,0,0,0,0,0,0,0,0,0,0,0,0,0,0,0,0,0,0,0,0,0,0,0,0],"split_type":[0,0,0,0,0,0,0,0,0,0,0,0,0,0,0,0,0,0,0,0,0,0,0,0,0,0,0,0,0,0,0,0,0,0,0,0,0,0,0,0,0,0,0,0,0,0,0,0,0,0,0,0,0,0,0,0,0,0,0,0,0,0,0,0,0,0,0,0,0,0,0,0,0,0,0,0,0,0,0,0,0,0,0,0,0,0,0,0,0,0,0,0,0,0,0,0,0,0,0,0,0,0,0,0,0,0,0,0,0,0,0,0,0,0,0,0,0,0,0,0,0,0,0,0,0,0,0,0,0,0,0,0,0,0,0,0,0,0,0,0,0,0,0,0,0,0,0,0,0,0,0,0,0,0,0,0,0,0,0,0,0,0,0,0,0,0,0,0,0,0,0,0,0,0,0,0,0,0,0,0,0,0,0,0,0,0,0,0,0,0,0,0,0,0,0,0,0,0,0,0,0,0,0,0,0,0,0,0,0,0,0,0,0,0,0,0,0,0,0,0,0,0,0,0,0,0,0,0,0,0,0,0,0,0,0,0,0,0,0,0,0,0,0,0,0,0,0,0,0,0,0,0,0,0,0,0,0,0,0,0,0,0,0,0,0,0,0,0,0,0,0,0,0,0,0,0,0,0,0,0,0,0,0,0,0,0,0,0,0,0,0,0,0,0,0,0,0,0,0,0,0,0,0,0,0,0,0,0,0,0,0,0,0,0,0,0,0,0,0,0,0,0,0,0,0,0,0,0,0,0,0,0,0,0,0,0,0,0,0,0,0,0,0,0,0,0,0,0,0,0,0,0,0,0,0,0,0,0,0,0,0,0,0,0,0,0,0,0,0,0,0,0,0,0,0,0,0,0,0,0,0,0,0,0,0,0,0,0,0,0,0,0,0,0,0,0,0,0,0,0,0,0,0,0,0,0,0,0,0,0,0,0,0,0,0,0,0,0,0,0,0,0,0,0,0,0,0,0,0,0,0,0,0,0,0,0,0],"sum_hessian":[3.6474E4,6.439E3,3.0035E4,2.703E3,3.736E3,2.9028E4,1.007E3,1.275E3,1.428E3,3.527E3,2.09E2,8.4E3,2.0628E4,8.28E2,1.79E2,6.46E2,6.29E2,1.131E3,2.97E2,2.948E3,5.79E2,8.1E1,1.28E2,3.221E3,5.179E3,1.1671E4,8.957E3,7.28E2,1E2,3.54E2,2.92E2,3.81E2,2.48E2,5.52E2,5.79E2,1.42E2,1.55E2,1.613E3,1.335E3,5.26E2,5.3E1,3E0,7.8E1,1.776E3,1.445E3,2.955E3,2.224E3,6.586E3,5.085E3,3.056E3,5.901E3,4.39E2,2.89E2,8.3E1,2.71E2,1.72E2,1.2E2,1.19E2,2.62E2,2.02E2,3.5E2,3.49E2,2.3E2,3.9E1,1.03E2,4.61E2,1.152E3,1.5E1,1.32E3,2.96E2,2.3E2,9.5E2,8.26E2,5.73E2,8.72E2,1.617E3,1.338E3,1.257E3,9.67E2,2.45E3,4.136E3,1.341E3,3.744E3,8.87E2,2.169E3,3.65E3,2.251E3,2.9E2,1.49E2,4.9E1,2.4E2,7.1E1,2E2,1.43E2,2.9E1,3.2E1,8.8E1,2.29E2,3.3E1,8.1E1,1.21E2,3.04E2,4.6E1,3.06E2,4.3E1,1.24E2,1.06E2,2.97E2,1.64E2,2.39E2,9.13E2,1E1,5E0,3.76E2,9.44E2,6.9E1,2.27E2,9.43E2,7E0,7.27E2,9.9E1,3.14E2,2.59E2,5.88E2,2.84E2,7.63E2,8.54E2,6.9E2,6.48E2,5.44E2,7.13E2,5.27E2,4.4E2,7.97E2,1.653E3,2.752E3,1.384E3,4.18E2,9.23E2,3.565E3,1.79E2,5.85E2,3.02E2,9.68E2,1.201E3,1.315E3,2.335E3,4.85E2,1.766E3,1.5E2,1.4E2,1.1E1,1.38E2,1.09E2,1.31E2,1.83E2,1.7E1,8.5E1,3E0,7E1,1.1E1,8.5E1,3.6E1,3.2E1,2.72E2,7E0,3.9E1,6.6E1,2.4E2,4E1,3E0,7E1,5.4E1,3.7E1,6.9E1,2.91E2,6E0,3.3E1,1.31E2,2.28E2,6.85E2,1E0,9E0,3E0,2E0,2.29E2,1.47E2,1.13E2,8.31E2,1.4E1,5.5E1,1.15E2,1.12E2,2.71E2,6.72E2,5.02E2,2.25E2,9.2E1,7E0,2E0,3.12E2,4E0,2.55E2,2.84E2,3.04E2,1.12E2,1.72E2,5.06E2,2.57E2,5.9E2,2.64E2,2.21E2,4.69E2,2.25E2,4.23E2,4.23E2,1.21E2,1.24E2,5.89E2,3.25E2,2.02E2,1.86E2,2.54E2,4.37E2,3.6E2,6.92E2,9.61E2,2.623E3,1.29E2,4.59E2,9.25E2,1.6E1,4.02E2,5.18E2,4.05E2,1.386E3,2.179E3,1.73E2,6E0,4.2E1,5.43E2,4E0,2.98E2,1.06E2,8.62E2,7.68E2,4.33E2,1.124E3,1.211E3,2.44E2,2.41E2,1.057E3,7.09E2,4E0,1.46E2,2.3E1,1.17E2,2.2E1,1.16E2,1E0,1.08E2,1.81E2,2E0,1.8E1,5.2E1,4E0,7E0,5.6E1,2.9E1,2.7E1,9E0,1.8E1,1.4E1,2.6E1,2.46E2,4E0,3E0,3.2E1,7E0,5.3E1,1.3E1,7.5E1,1.65E2,1.8E1,2.2E1,2E0,1E0,5.2E1,1.8E1,1.6E1,3.8E1,3.5E1,2E0,1E1,5.9E1,2.88E2,3E0,2.19E2,9E0,4.11E2,2.74E2,2E0,7E0,2E0,1E0,5.1E1,1.78E2,3.2E1,1.15E2,1.4E1,9.9E1,7.13E2,1.18E2,4.1E1,7.4E1,2.06E2,6.5E1,2.83E2,3.89E2,3.46E2,1.56E2,1.94E2,3.1E1,8.1E1,1.1E1,2.77E2,3.5E1,2E0,2E0,1E0,2.54E2,2.81E2,3E0,1.59E2,1.45E2,1E0,1.11E2,1.06E2,6.6E1,4.46E2,6E1,2.15E2,4.2E1,2.96E2,2.94E2,1.36E2,1.28E2,8E1,1.41E2,1.79E2,2.9E2,2.1E2,1.5E1,3.1E2,1.13E2,2.74E2,1.49E2,3E0,1.18E2,6.7E1,5.7E1,4E0,5.85E2,1.72E2,1.53E2,1.11E2,9.1E1,4.4E1,2.1E2,1.27E2,3.1E2,9.3E1,2.67E2,3.24E2,3.68E2,4.64E2,4.97E2,1.742E3,8.81E2,2.8E1,1.01E2,2.27E2,2.32E2,4.57E2,4.68E2,9E0,7E0,5E0,3.97E2,5.09E2,9E0,1.1E1,3.94E2,5.9E2,7.96E2,1.044E3,1.135E3,1.5E1,1.58E2,3.9E1,3E0,8.9E1,4.54E2,3E0,1E0,2.58E2,4E1,4.3E1,6.3E1,6.26E2,2.36E2,4.21E2,3.47E2,5E1,3.83E2,8.13E2,3.11E2,6.2E2,5.91E2,4.3E1,2.01E2,2E0,2.39E2,1.056E3,1E0,2.96E2,4.13E2,7E1,7.6E1,1E0,2.2E1,1.16E2,1E0,1.9E1,3E0,8.3E1,2.5E1],"tree_param":{"num_deleted":"0","num_feature":"29","num_nodes":"437","size_leaf_vector":"1"}},{"base_weights":[6.4907004E-3,6.1714973E0,-1.3153447E0,3.5042386E0,8.099808E0,-1.7543807E0,1.1329589E1,7.405857E0,1.7905522E-2,7.828104E0,1.2625858E1,1.0675756E0,-2.9035156E0,1.0539257E1,4.471969E0,9.540278E0,5.2020855E0,-1.2581866E0,4.8652825E0,7.415374E0,9.913127E0,3.0736325E0,1.3249381E1,3.9007237E0,-6.9487053E-1,-4.161153E0,-1.2645286E0,1.0067146E1,1.3842522E1,7.608659E0,1.1848076E1,5.7117577E0,1.3197861E0,-2.9952152E0,4.001495E-1,5.528482E0,1.2678487E0,8.05174E0,6.64104E0,9.450755E0,4.2725873E0,1.4086232E1,3.2443936E0,1.1501082E0,7.278278E0,-2.6343954E0,1.8821769E0,-5.4328337E0,-2.5133505E0,1.4379135E0,-2.6640713E0,1.0763085E1,8.976524E0,4.351818E0,3.240135E0,1.2663435E0,8.62683E0,1.4318115E1,8.218614E0,1.3261588E0,6.2791934E0,-2.7584975E0,-3.654626E0,7.10423E-1,-1.0436453E0,1.2800643E0,5.9605546E0,6.8257327E0,8.53601E0,-3.6906612E-1,6.720919E0,1.0168273E1,8.48732E0,2.8768682E0,4.4718204E0,9.0867656E-1,4.415656E0,1.1999689E1,4.1655993E0,-4.326043E0,-5.8830076E-1,-1.2209979E-1,4.484964E0,-3.741593E0,-6.43351E0,2.672284E0,-4.3709226E0,5.513616E0,-2.3059428E-1,-3.7433326E0,-9.131626E-1,1.1383782E1,9.487179E0,6.272401E0,9.500299E0,5.9715834E0,9.535044E0,4.111384E0,5.035698E0,5.551288E0,9.115278E0,6.082842E0,2.2268322E0,-3.1857042E0,-2.175717E0,-2.6131804E0,-4.2388864E0,6.372046E-1,1.6637831E0,-1.3474182E0,6.923331E-1,7.09728E-1,6.043907E0,7.427391E0,5.6977334E0,1.0588625E1,7.987691E0,-2.1030478E0,2.8714113E0,7.5554237E0,6.380888E0,1.1671834E1,9.662055E0,9.491429E0,7.9729342E0,-5.1687634E-1,2.5813298E0,1.0395165E1,1.3897479E1,1.9794761E0,8.668971E0,-5.393846E0,-3.36683E0,-3.352059E0,2.3552206E0,1.1242236E0,-1.073254E0,1.4111124E0,8.155051E0,-1.3600299E-2,-5.537963E0,-7.343567E0,-4.6199207E0,7.181367E0,6.2468874E-1,-4.6251454E0,6.8979275E-1,2.833835E0,1.0678099E1,1.6550182E0,-1.750501E0,-1.9531283E0,-2.1828701E0,4.02922E0,-2.2720108E0,1.2518192E1,1.00881815E1,6.3245535E0,9.691958E0,1.1227874E0,6.5323105E0,1.0085091E1,8.243384E0,5.0927305E0,6.6239057E0,9.154538E0,3.868478E0,3.5246488E-1,1.6954008E0,8.469851E0,4.010153E0,6.4239435E0,5.548919E0,-3.4055238E0,-1.5067959E0,3.3729403E0,-2.3566256E0,-3.4405785E0,-7.6724064E-1,-5.362599E0,-3.4262948E0,6.8899935E-1,-1.3014667E0,-1.9400494E-1,-1.8547648E0,1.201572E0,-1.1357765E0,1.8276545E0,7.308693E-1,6.743846E0,8.022759E0,4.8753834E0,1.7869432E0,1.0674159E1,1.6421233E0,1.0596773E1,7.1050854E0,6.1725914E-1,-2.7248588E0,4.027762E0,1.1174202E-1,-2.0171616E0,7.663487E0,7.2611003E0,6.2526126E0,7.2373157E0,1.2651226E1,1.0527462E1,8.688168E0,2.3007746E0,9.766732E0,2.4385393E0,5.600953E0,-1.9025038E-1,-1.7868549E0,1.9458432E0,7.418805E0,1.419595E-1,1.05600815E1,4.0174522E0,4.246488E0,1.8424397E0,4.496331E0,1.1516434E1,6.7589574E0,-4.5153837E0,-7.09922E0,-3.3882017E0,2.232679E0,-9.9552727E-1,-4.458012E0,7.343369E0,-3.0911165E-1,-1.1637446E0,9.066635E0,-1.1118273E0,6.789936E-1,1.9397795E0,5.5516887E-1,9.594833E0,5.297909E0,-2.8495553E-1,4.2595083E-1,-6.8222E0,-4.607075E0,-7.598121E0,-2.149E0,-8.134256E0,-2.8691494E0,6.973939E0,3.5910265E0,-1.20555E0,2.9627903E0,-5.699832E0,-3.9392662E0,2.260667E-1,3.635447E0,8.9253503E-1,2.982074E0,3.616263E-1,1.0745445E1,3.2676172E0,1.4531606E0,-3.772278E0,1.8358977E0,-4.4785026E-1,-3.7915454E0,1.4901159E0,6.583151E0,-2.9435515E0,-1.2681206E0,1.2217859E0,1.2720299E1,1.9609247E0,1.0554811E1,9.1829956E-1,2.1216884E0,9.7549E0,1.0760907E0,7.4717393E0,5.031409E0,6.997503E0,1.026607E1,8.417316E0,3.881364E0,3.2314226E-1,1.5537468E0,4.7314227E-1,2.0153039E0,2.676129E0,4.1399302E0,2.2821622E0,3.4334927E0,3.144456E-1,1.9369446E0,1.5749758E0,2.0839705E0,-8.7689024E-1,-1.2753816E0,1.1032549E-1,-8.554915E-1,-8.555054E-1,1.5564607E0,-1.344901E0,-5.994916E-1,-7.398722E-1,-1.5794787E0,-1.2679937E0,1.569192E-1,-1.6539279E0,-1.4295102E-2,-1.2248268E0,-5.1562464E-1,1.5615821E-1,6.783205E-1,-2.879911E-1,4.5890892E-1,5.2537996E-1,-6.214434E-1,3.028491E-2,6.3916236E-1,-4.3450415E-1,-2.9709721E-2,1.4386717E0,2.156872E0,2.4529185E0,1.0885082E0,1.0707277E0,1.6228678E0,2.6908104E0,3.2782953E0,2.2635279E0,3.3056734E0,2.0147824E0,2.4051383E0,-1.1054516E0,2.2301216E-1,1.5517418E0,8.904448E-2,-2.0682685E0,1.0596877E0,2.5544777E0,1.8844062E0,2.283289E0,1.5333635E0,1.6990286E0,1.9121685E0,2.3877807E0,9.786387E-1,2.9233236E0,4.1005325E0,2.6297326E0,3.4120924E0,2.6190374E0,5.983432E-1,8.135399E-1,1.6015492E-1,1.2169249E0,3.0430746E0,9.7624785E-1,1.88472E0,-1.852868E-1,4.8554987E-1,-2.8048804E-1,-1.2058507E0,1.0284572E0,-3.7710845E-1,1.7795378E0,2.6067903E0,2.006717E0,-7.515814E-1,3.0508397E0,3.9751875E0,5.778876E-1,2.7983363E0,9.533327E-1,1.7807136E-1,3.602506E0,1.759001E0,1.087761E0,3.4984996E0,-1.4053484E0,-9.6064216E-1,-2.4362032E0,-5.4092485E-1,-1.1150352E0,-7.931569E-1,-1.967362E-1,-4.8429963E-1,-1.7775426E0,-1.0605569E0,2.114898E0,3.2273107E0,4.856309E-1,-4.9330193E-1,-4.0967295E-1,-2.3578832E-1,5.531216E-3,2.7883759E0,-5.679612E-1,-3.1383038E-1,-5.337618E-1,6.9955015E-1,3.992859E-1,7.8333753E-1,-4.0556943E-1,8.6123437E-1,3.1042051E0,2.453029E0,6.887962E-1,2.6652327E0,-2.2313861E-2,-3.6881444E-1,1.6792679E-1,-6.0776657E-1,-1.7583827E0,-2.2950165E0,-1.1584595E0,-1.8913549E0,-2.5180745E0,-2.0453644E0,-1.5194331E0,-1.794943E-1,-2.6128318E0,-2.260952E0,-1.2439154E0,1.8032436E-1,2.1237688E0,8.8335574E-1,-3.389699E-1,-1.4829481E0,-1.8107794E-1,9.685691E-1,-1.3419703E0,-1.9806722E0,-1.3188726E0,-8.7416023E-1,1.4757348E0,-1.0409154E-1,-7.897272E-2,3.1546155E-1,9.106657E-1,1.6925548E-1,2.0118743E-1,-3.8455583E-2,3.0974045E0,3.9485657E0,2.025545E-1,1.499658E0,5.0849694E-1,2.4217589E-1,-1.4296389E0,-7.671176E-1,2.8521216E-1,6.5727234E-1,-3.787183E-1,5.036128E-1,-2.1268291E0,-9.771121E-2,1.2868781E0,2.6188558E-1,-1.4082581E0,2.0090065E0,-7.9417837E-1,-1.1763439E0,3.2744864E-1,-5.065906E-1,3.260922E0,4.278438E0,3.210891E0,1.4752972E0,2.936018E0,8.13984E-1,8.0661243E-1,2.3312266E0,2.7049594E0,1.3041334E0,2.3822396E0,1.226619E0,2.7122219E0,3.331985E0,5.762049E-1,2.5430236E0,1.2784431E0,3.5413685E-1],"categories":[],"categories_nodes":[],"categories_segments":[],"categories_sizes":[],"default_left":[0,0,0,0,0,0,0,0,0,0,0,0,0,0,0,0,0,0,0,0,0,0,0,0,0,0,0,0,0,0,0,0,0,0,0,0,0,0,0,0,0,0,0,0,0,0,0,0,0,0,0,0,0,0,0,0,0,0,0,0,0,0,0,0,0,0,0,0,0,0,0,0,0,0,0,0,0,0,0,0,0,0,0,0,0,0,0,0,0,0,0,0,0,0,0,0,0,0,0,0,0,0,0,0,0,0,0,0,0,0,0,0,0,0,0,0,0,0,0,0,0,0,0,0,0,0,0,0,0,0,0,0,0,0,0,0,0,0,0,0,0,0,0,0,0,0,0,0,0,0,0,0,0,0,0,0,0,0,0,0,0,0,0,0,0,0,0,0,0,0,0,0,0,0,0,0,0,0,0,0,0,0,0,0,0,0,0,0,0,0,0,0,0,0,0,0,0,0,0,0,0,0,0,0,0,0,0,0,0,0,0,0,0,0,0,0,0,0,0,0,0,0,0,0,0,0,0,0,0,0,0,0,0,0,0,0,0,0,0,0,0,0,0,0,0,0,0,0,0,0,0,0,0,0,0,0,0,0,0,0,0,0,0,0,0,0,0,0,0,0,0,0,0,0,0,0,0,0,0,0,0,0,0,0,0,0,0,0,0,0,0,0,0,0,0,0,0,0,0,0,0,0,0,0,0,0,0,0,0,0,0,0,0,0,0,0,0,0,0,0,0,0,0,0,0,0,0,0,0,0,0,0,0,0,0,0,0,0,0,0,0,0,0,0,0,0,0,0,0,0,0,0,0,0,0,0,0,0,0,0,0,0,0,0,0,0,0,0,0,0,0,0,0,0,0,0,0,0,0,0,0,0,0,0,0,0,0,0,0,0,0,0,0,0,0,0,0,0,0,0,0,0,0,0,0,0,0,0,0,0,0,0,0,0,0,0,0,0,0,0,0,0,0,0,0,0,0,0,0,0,0,0,0,0,0,0,0,0,0,0,0,0,0,0,0,0,0,0,0,0,0,0,0,0,0,0,0,0,0,0,0,0,0,0,0,0,0,0,0,0,0,0,0,0,0,0,0,0,0,0,0,0,0,0,0],"id":1,"left_children":[1,3,5,7,9,11,13,15,17,19,21,23,25,27,-1,29,31,33,35,37,39,-1,41,43,45,47,49,51,53,55,57,59,-1,61,63,65,-1,67,69,71,-1,73,-1,75,77,79,81,83,85,87,89,91,93,-1,-1,-1,95,97,99,-1,101,103,105,107,109,-1,111,113,115,117,119,121,123,-1,-1,125,-1,127,129,131,133,135,137,139,141,143,145,147,149,151,153,155,157,159,161,163,165,-1,-1,167,169,171,-1,173,175,177,179,181,-1,183,185,-1,187,189,191,193,195,197,199,201,203,205,207,209,211,213,215,217,219,221,223,225,227,229,231,233,235,237,239,241,243,245,247,249,251,253,255,257,259,261,263,-1,265,267,269,271,273,275,277,-1,279,281,283,285,287,289,-1,-1,-1,291,-1,293,295,297,299,301,303,305,307,309,311,313,-1,315,317,319,321,-1,-1,323,325,327,-1,329,-1,331,333,-1,335,337,-1,339,341,343,345,347,349,351,353,355,357,-1,359,361,363,365,367,369,371,373,-1,375,-1,377,379,381,383,385,-1,387,389,391,393,395,397,399,401,403,405,407,409,411,413,415,417,419,421,423,425,427,-1,429,431,433,435,437,-1,439,441,443,445,447,449,451,453,455,457,459,461,463,465,-1,467,-1,469,-1,-1,471,-1,473,475,477,479,481,483,-1,-1,-1,-1,-1,-1,-1,-1,-1,-1,-1,-1,-1,-1,-1,-1,-1,-1,-1,-1,-1,-1,-1,-1,-1,-1,-1,-1,-1,-1,-1,-1,-1,-1,-1,-1,-1,-1,-1,-1,-1,-1,-1,-1,-1,-1,-1,-1,-1,-1,-1,-1,-1,-1,-1,-1,-1,-1,-1,-1,-1,-1,-1,-1,-1,-1,-1,-1,-1,-1,-1,-1,-1,-1,-1,-1,-1,-1,-1,-1,-1,-1,-1,-1,-1,-1,-1,-1,-1,-1,-1,-1,-1,-1,-1,-1,-1,-1,-1,-1,-1,-1,-1,-1,-1,-1,-1,-1,-1,-1,-1,-1,-1,-1,-1,-1,-1,-1,-1,-1,-1,-1,-1,-1,-1,-1,-1,-1,-1,-1,-1,-1,-1,-1,-1,-1,-1,-1,-1,-1,-1,-1,-1,-1,-1,-1,-1,-1,-1,-1,-1,-1,-1,-1,-1,-1,-1,-1,-1,-1,-1,-1,-1,-1,-1,-1,-1,-1,-1,-1,-1,-1,-1,-1,-1,-1,-1,-1,-1,-1,-1,-1,-1,-1,-1,-1,-1,-1,-1,-1,-1,-1,-1,-1,-1,-1,-1,-1,-1,-1],"loss_changes":[2.972474E5,3.3094484E4,1.6676719E5,3.678061E4,4.496703E3,9.413857E4,2.6925078E3,5.9523906E3,8.845486E3,2.9625156E3,1.7594531E2,4.195118E4,4.2516297E4,1.1534688E3,0E0,2.794039E3,2.3264453E2,3.2620117E3,1.02947754E2,1.3996719E3,1.0262891E3,0E0,1.7977734E2,2.9925145E4,2.589588E4,2.4444766E4,3.3884633E4,4.5670312E2,4.719922E1,1.1880039E3,2.5090469E3,2.5212988E2,0E0,7.623828E1,2.6056473E2,5.25166E1,0E0,9E2,7.5059766E2,2.780078E2,0E0,2.920664E2,0E0,5.8079443E3,2.1200773E4,1.0228975E4,1.1607715E4,1.1123656E4,4.9003547E4,2.0789916E4,1.114952E4,2.4046094E2,3.5115234E2,0E0,0E0,0E0,5.989961E2,3.1851562E1,2.3879395E2,0E0,1.3904297E1,9.539429E1,7.593506E1,1.6570145E2,5.52492E1,0E0,1.686377E1,2.7122656E2,1.2131094E3,9.594157E1,3.266289E2,1.1328125E2,4.363672E1,0E0,0E0,4.1669785E3,0E0,1.6033906E3,8.577457E3,1.6390781E3,1.0900902E4,1.4924973E3,1.0908795E4,1.6413914E4,6.794078E3,1.2385899E4,4.8213125E3,1.2259383E4,6.222019E3,1.5750621E4,1.5133468E4,3.0140625E2,3.584961E1,8.42749E0,9.400586E1,7.543457E0,1.3892383E2,0E0,0E0,7.809387E0,1.3102441E2,6.2421875E0,0E0,8.1596924E1,1.856211E2,7.983594E1,6.3807007E1,1.2462384E2,0E0,5.1136047E1,1.625983E1,0E0,2.7475586E0,6.716992E1,6.0683594E0,4.6572266E1,2.029457E3,3.4064503E1,1.5837654E1,4.0544336E2,6.1296875E1,2.1245801E2,1.0069531E2,1.2204053E2,1.3128906E1,3.9123883E2,2.4571821E3,5.311367E2,6.045547E2,1.0223428E3,1.4721895E3,1.112498E3,2.2272754E2,1.7964556E3,8.627535E3,9.914283E3,4.901416E1,2.378479E2,1.763291E3,9.530242E1,1.9458945E3,3.6239531E3,8.498287E3,3.327207E2,3.95763E3,2.6060625E3,9.511939E2,1.659751E2,2.066289E2,3.1067603E2,8.722506E3,0E0,6.5182715E3,3.1417534E3,1.1874961E3,2.059375E2,1.6469629E2,7.6352234E0,1.8420898E1,0E0,2.4446411E1,1.7569336E1,2.954248E1,6.567993E0,7.388916E0,7.699707E1,0E0,0E0,0E0,1.1825293E2,0E0,1.6671875E1,4.0671387E0,7.205493E1,7.415685E1,8.2591064E1,1.2209259E2,5.278415E1,8.2557144E1,2.853247E1,5.463434E1,1.2277261E2,0E0,3.8436733E1,5.1297653E1,1.3076698E1,1.1527891E0,0E0,0E0,9.143994E1,7.430469E1,1.2093384E1,0E0,3.5410156E0,0E0,2.1186523E2,1.8963281E2,0E0,3.6033546E1,1.5548157E1,0E0,1.596777E2,3.854629E2,4.684619E1,2.3357422E1,1.708429E1,3.239258E1,7.322266E1,1.4323242E1,1.4573059E0,1.0948779E2,0E0,3.458557E-1,5.823028E2,3.6332416E2,3.3847192E3,1.2415625E2,1.20747955E2,1.9105469E2,7.087004E1,0E0,9.7202637E2,0E0,2.438291E2,2.615101E3,9.759473E1,1.3810801E3,1.9904297E2,0E0,4.561302E1,6.153877E2,1.507998E2,1.0941061E3,3.1256165E1,2.5145898E2,3.3917847E1,6.915699E1,1.297716E2,9.0033466E2,2.2699219E2,1.5944253E3,9.815203E1,1.01194916E2,5.0644727E2,1.193082E3,1.5713438E3,5.847586E2,9.251758E1,4.1068037E3,1.5055469E2,0E0,1.4116272E2,3.8677588E2,1.5057266E3,1.0087031E3,4.6964462E2,0E0,8.179028E0,6.8629395E1,5.400172E-1,1.7014844E2,4.7685547E2,1.3343164E2,9.159502E2,1.3430225E2,1.9508174E3,1.3850785E4,4.1955096E2,3.4129102E2,2.960713E2,7.06343E2,0E0,2.6422656E2,0E0,5.0095703E1,0E0,0E0,4.1484375E0,0E0,1.4861694E1,1.5344299E1,4.5825195E-1,5.305078E1,1.383252E1,1.02767944E-1,0E0,0E0,0E0,0E0,0E0,0E0,0E0,0E0,0E0,0E0,0E0,0E0,0E0,0E0,0E0,0E0,0E0,0E0,0E0,0E0,0E0,0E0,0E0,0E0,0E0,0E0,0E0,0E0,0E0,0E0,0E0,0E0,0E0,0E0,0E0,0E0,0E0,0E0,0E0,0E0,0E0,0E0,0E0,0E0,0E0,0E0,0E0,0E0,0E0,0E0,0E0,0E0,0E0,0E0,0E0,0E0,0E0,0E0,0E0,0E0,0E0,0E0,0E0,0E0,0E0,0E0,0E0,0E0,0E0,0E0,0E0,0E0,0E0,0E0,0E0,0E0,0E0,0E0,0E0,0E0,0E0,0E0,0E0,0E0,0E0,0E0,0E0,0E0,0E0,0E0,0E0,0E0,0E0,0E0,0E0,0E0,0E0,0E0,0E0,0E0,0E0,0E0,0E0,0E0,0E0,0E0,0E0,0E0,0E0,0E0,0E0,0E0,0E0,0E0,0E0,0E0,0E0,0E0,0E0,0E0,0E0,0E0,0E0,0E0,0E0,0E0,0E0,0E0,0E0,0E0,0E0,0E0,0E0,0E0,0E0,0E0,0E0,0E0,0E0,0E0,0E0,0E0,0E0,0E0,0E0,0E0,0E0,0E0,0E0,0E0,0E0,0E0,0E0,0E0,0E0,0E0,0E0,0E0,0E0,0E0,0E0,0E0,0E0,0E0,0E0,0E0,0E0,0E0,0E0,0E0,0E0,0E0,0E0,0E0,0E0,0E0,0E0,0E0,0E0,0E0,0E0,0E0,0E0,0E0,0E0,0E0,0E0,0E0,0E0,0E0,0E0,0E0,0E0,0E0,0E0,0E0,0E0,0E0,0E0,0E0],"parents":[2147483647,0,0,1,1,2,2,3,3,4,4,5,5,6,6,7,7,8,8,9,9,10,10,11,11,12,12,13,13,15,15,16,16,17,17,18,18,19,19,20,20,22,22,23,23,24,24,25,25,26,26,27,27,28,28,29,29,30,30,31,31,33,33,34,34,35,35,37,37,38,38,39,39,41,41,43,43,44,44,45,45,46,46,47,47,48,48,49,49,50,50,51,51,52,52,56,56,57,57,58,58,60,60,61,61,62,62,63,63,64,64,66,66,67,67,68,68,69,69,70,70,71,71,72,72,75,75,77,77,78,78,79,79,80,80,81,81,82,82,83,83,84,84,85,85,86,86,87,87,88,88,89,89,90,90,91,91,92,92,93,93,94,94,95,95,96,96,99,99,100,100,101,101,103,103,104,104,105,105,106,106,107,107,109,109,110,110,112,112,113,113,114,114,115,115,116,116,117,117,118,118,119,119,120,120,121,121,122,122,123,123,124,124,125,125,126,126,127,127,128,128,129,129,130,130,131,131,132,132,133,133,134,134,135,135,136,136,137,137,138,138,139,139,140,140,141,141,142,142,143,143,144,144,145,145,146,146,147,147,148,148,149,149,150,150,152,152,153,153,154,154,155,155,156,156,157,157,158,158,160,160,161,161,162,162,163,163,164,164,165,165,169,169,171,171,172,172,173,173,174,174,175,175,176,176,177,177,178,178,179,179,180,180,181,181,183,183,184,184,185,185,186,186,189,189,190,190,191,191,193,193,195,195,196,196,198,198,199,199,201,201,202,202,203,203,204,204,205,205,206,206,207,207,208,208,209,209,210,210,212,212,213,213,214,214,215,215,216,216,217,217,218,218,219,219,221,221,223,223,224,224,225,225,226,226,227,227,229,229,230,230,231,231,232,232,233,233,234,234,235,235,236,236,237,237,238,238,239,239,240,240,241,241,242,242,243,243,244,244,245,245,246,246,247,247,248,248,249,249,251,251,252,252,253,253,254,254,255,255,257,257,258,258,259,259,260,260,261,261,262,262,263,263,264,264,265,265,266,266,267,267,268,268,269,269,270,270,272,272,274,274,277,277,279,279,280,280,281,281,282,282,283,283,284,284],"right_children":[2,4,6,8,10,12,14,16,18,20,22,24,26,28,-1,30,32,34,36,38,40,-1,42,44,46,48,50,52,54,56,58,60,-1,62,64,66,-1,68,70,72,-1,74,-1,76,78,80,82,84,86,88,90,92,94,-1,-1,-1,96,98,100,-1,102,104,106,108,110,-1,112,114,116,118,120,122,124,-1,-1,126,-1,128,130,132,134,136,138,140,142,144,146,148,150,152,154,156,158,160,162,164,166,-1,-1,168,170,172,-1,174,176,178,180,182,-1,184,186,-1,188,190,192,194,196,198,200,202,204,206,208,210,212,214,216,218,220,222,224,226,228,230,232,234,236,238,240,242,244,246,248,250,252,254,256,258,260,262,264,-1,266,268,270,272,274,276,278,-1,280,282,284,286,288,290,-1,-1,-1,292,-1,294,296,298,300,302,304,306,308,310,312,314,-1,316,318,320,322,-1,-1,324,326,328,-1,330,-1,332,334,-1,336,338,-1,340,342,344,346,348,350,352,354,356,358,-1,360,362,364,366,368,370,372,374,-1,376,-1,378,380,382,384,386,-1,388,390,392,394,396,398,400,402,404,406,408,410,412,414,416,418,420,422,424,426,428,-1,430,432,434,436,438,-1,440,442,444,446,448,450,452,454,456,458,460,462,464,466,-1,468,-1,470,-1,-1,472,-1,474,476,478,480,482,484,-1,-1,-1,-1,-1,-1,-1,-1,-1,-1,-1,-1,-1,-1,-1,-1,-1,-1,-1,-1,-1,-1,-1,-1,-1,-1,-1,-1,-1,-1,-1,-1,-1,-1,-1,-1,-1,-1,-1,-1,-1,-1,-1,-1,-1,-1,-1,-1,-1,-1,-1,-1,-1,-1,-1,-1,-1,-1,-1,-1,-1,-1,-1,-1,-1,-1,-1,-1,-1,-1,-1,-1,-1,-1,-1,-1,-1,-1,-1,-1,-1,-1,-1,-1,-1,-1,-1,-1,-1,-1,-1,-1,-1,-1,-1,-1,-1,-1,-1,-1,-1,-1,-1,-1,-1,-1,-1,-1,-1,-1,-1,-1,-1,-1,-1,-1,-1,-1,-1,-1,-1,-1,-1,-1,-1,-1,-1,-1,-1,-1,-1,-1,-1,-1,-1,-1,-1,-1,-1,-1,-1,-1,-1,-1,-1,-1,-1,-1,-1,-1,-1,-1,-1,-1,-1,-1,-1,-1,-1,-1,-1,-1,-1,-1,-1,-1,-1,-1,-1,-1,-1,-1,-1,-1,-1,-1,-1,-1,-1,-1,-1,-1,-1,-1,-1,-1,-1,-1,-1,-1,-1,-1,-1,-1,-1,-1,-1,-1,-1,-1],"split_conditions":[-4.1733766E-1,-8.079437E-2,2.2081115E0,2.8412336E-1,7.066919E0,-2.8676933E-2,3.9737294E0,-2.8676933E-2,1.3556894E0,2.2081115E0,-1.941425E0,2.8412336E-1,9.7566575E-2,7.066919E0,4.471969E0,8.608401E-1,-2.997595E-1,9.7566575E-2,-2.8676933E-2,2.8412336E-1,3.9737294E0,3.0736325E0,2.8412336E-1,-8.079437E-2,9.7566575E-2,-8.079437E-2,2.8412336E-1,-2.8676933E-2,-2.8676933E-2,-2.997595E-1,1.4411398E0,9.7566575E-2,1.3197861E0,6.6299933E-1,-7.2215515E-1,-2.997595E-1,1.2678487E0,9.7566575E-2,-1.6448165E0,2.8412336E-1,4.2725873E0,9.7566575E-2,3.2443936E0,7.066919E0,-2.997595E-1,1.3556894E0,1.3556894E0,2.8412336E-1,-2.997595E-1,-2.997595E-1,-8.079437E-2,2.8412336E-1,-8.079437E-2,4.351818E0,3.240135E0,1.2663435E0,9.7566575E-2,3.9737294E0,9.7566575E-2,1.3261588E0,2.2081115E0,2.6134294E-1,-8.707738E-2,2.2081115E0,3.563603E-1,1.2800643E0,-2.3787076E0,-2.997595E-1,-2.997595E-1,1.2516993E0,-2.8676933E-2,-2.8676933E-2,-2.8676933E-2,2.8768682E0,4.4718204E0,9.7566575E-2,4.415656E0,9.7566575E-2,9.7566575E-2,-8.079437E-2,-8.079437E-2,-2.997595E-1,-8.079437E-2,-2.997595E-1,1.3556894E0,2.8412336E-1,2.3566422E0,-8.079437E-2,8.608401E-1,-2.997595E-1,-2.997595E-1,-2.997595E-1,-8.079437E-2,-7.73625E-1,2.8412336E-1,-3.330113E-3,7.066919E0,4.111384E0,5.035698E0,-8.797495E-2,7.066919E0,1.1429964E0,2.2268322E0,-8.2589515E-2,-1.6448165E0,5.048814E-1,4.3215767E-1,1.6943715E0,1.6637831E0,1.2810242E-1,4.3795925E-1,7.09728E-1,1.330775E0,2.3259382E-1,-4.605994E-1,1.6941118E0,-2.8676933E-2,-5.115416E-1,4.3215767E-1,-4.8408437E0,-3.4655123E0,-7.6671734E-2,-2.997595E-1,-3.4655123E0,1.4411398E0,1.865079E0,1.4411398E0,-2.0842538E0,-3.6708086E0,7.066919E0,8.608401E-1,8.608401E-1,7.066919E0,-2.997595E-1,-2.997595E-1,-8.079437E-2,6.290608E0,8.608401E-1,8.608401E-1,3.3312267E-1,4.4249362E-1,2.3566422E0,-2.997595E-1,7.066919E0,1.3556894E0,4.4249362E-1,7.066919E0,-1.1252021E-1,-4.8408437E0,-1.1252021E-1,1.4411398E0,-1.9531283E0,8.608401E-1,1.3556894E0,1.3556894E0,-8.079437E-2,-9.478633E-1,-2.997595E-1,6.5978503E-1,1.1227874E0,-2.997595E-1,-1.1252021E-1,1.8590571E0,-2.381436E0,-1.7652472E0,3.9737294E0,3.868478E0,3.5246488E-1,1.6954008E0,2.2081115E0,4.010153E0,-1.7652472E0,1.5213042E0,8.608401E-1,-8.0746746E-1,1.1091063E-1,-1.6366075E0,4.3215767E-1,-1.7652472E0,4.3749073E-1,3.2237834E-1,1.2060993E0,-1.3014667E0,2.6170728E-1,-1.3597924E0,6.202815E-1,5.077923E-1,1.8276545E0,7.308693E-1,-1.6366075E0,1.6265558E0,2.805403E-1,1.7869432E0,1.1334657E-1,1.6421233E0,3.7176237E-2,1.4411398E0,6.1725914E-1,-4.9792358E-1,1.599324E-1,1.1174202E-1,9.7566575E-2,8.608401E-1,6.6299933E-1,-2.5091004E-1,1.1080921E0,7.857855E-4,9.7566575E-2,1.6943715E0,5.1061846E-2,-7.6671734E-2,2.4385393E0,-4.8822224E-1,8.608401E-1,4.7955018E-1,8.608401E-1,9.6875817E-1,1.1359405E-1,7.066919E0,8.319987E-1,4.246488E0,8.608401E-1,4.496331E0,1.6657114E0,1.4411398E0,-2.997595E-1,1.4411398E0,8.608401E-1,2.232679E0,5.050641E-1,4.4249362E-1,7.066919E0,8.608401E-1,-8.61798E-2,-2.0842538E0,-1.2448335E0,6.202815E-1,-2.997595E-1,1.4411398E0,-2.997595E-1,1.4411398E0,-2.5091004E-1,1.7579955E0,8.608401E-1,6.6299933E-1,4.4249362E-1,4.4249362E-1,4.4249362E-1,1.4411398E0,3.8694222E0,3.5910265E0,3.8694222E0,-1.1252021E-1,2.8412336E-1,1.3556894E0,3.7176237E-2,3.635447E0,-1.2863574E0,1.7579955E0,7.9451984E-1,7.066919E0,-8.079437E-2,-8.079437E-2,-8.079437E-2,-5.115416E-1,1.3556894E0,1.4411398E0,-1.1252021E-1,-3.6708086E0,6.6299933E-1,-1.1252021E-1,1.2217859E0,9.7566575E-2,1.9609247E0,6.290608E0,9.1829956E-1,2.1216884E0,6.9242626E-1,1.0760907E0,9.7566575E-2,-4.2514837E-1,-7.4511364E-2,9.7566575E-2,-1.3597924E0,2.718049E-1,3.2314226E-1,1.5537468E0,4.7314227E-1,2.0153039E0,2.676129E0,4.1399302E0,2.2821622E0,3.4334927E0,3.144456E-1,1.9369446E0,1.5749758E0,2.0839705E0,-8.7689024E-1,-1.2753816E0,1.1032549E-1,-8.554915E-1,-8.555054E-1,1.5564607E0,-1.344901E0,-5.994916E-1,-7.398722E-1,-1.5794787E0,-1.2679937E0,1.569192E-1,-1.6539279E0,-1.4295102E-2,-1.2248268E0,-5.1562464E-1,1.5615821E-1,6.783205E-1,-2.879911E-1,4.5890892E-1,5.2537996E-1,-6.214434E-1,3.028491E-2,6.3916236E-1,-4.3450415E-1,-2.9709721E-2,1.4386717E0,2.156872E0,2.4529185E0,1.0885082E0,1.0707277E0,1.6228678E0,2.6908104E0,3.2782953E0,2.2635279E0,3.3056734E0,2.0147824E0,2.4051383E0,-1.1054516E0,2.2301216E-1,1.5517418E0,8.904448E-2,-2.0682685E0,1.0596877E0,2.5544777E0,1.8844062E0,2.283289E0,1.5333635E0,1.6990286E0,1.9121685E0,2.3877807E0,9.786387E-1,2.9233236E0,4.1005325E0,2.6297326E0,3.4120924E0,2.6190374E0,5.983432E-1,8.135399E-1,1.6015492E-1,1.2169249E0,3.0430746E0,9.7624785E-1,1.88472E0,-1.852868E-1,4.8554987E-1,-2.8048804E-1,-1.2058507E0,1.0284572E0,-3.7710845E-1,1.7795378E0,2.6067903E0,2.006717E0,-7.515814E-1,3.0508397E0,3.9751875E0,5.778876E-1,2.7983363E0,9.533327E-1,1.7807136E-1,3.602506E0,1.759001E0,1.087761E0,3.4984996E0,-1.4053484E0,-9.6064216E-1,-2.4362032E0,-5.4092485E-1,-1.1150352E0,-7.931569E-1,-1.967362E-1,-4.8429963E-1,-1.7775426E0,-1.0605569E0,2.114898E0,3.2273107E0,4.856309E-1,-4.9330193E-1,-4.0967295E-1,-2.3578832E-1,5.531216E-3,2.7883759E0,-5.679612E-1,-3.1383038E-1,-5.337618E-1,6.9955015E-1,3.992859E-1,7.8333753E-1,-4.0556943E-1,8.6123437E-1,3.1042051E0,2.453029E0,6.887962E-1,2.6652327E0,-2.2313861E-2,-3.6881444E-1,1.6792679E-1,-6.0776657E-1,-1.7583827E0,-2.2950165E0,-1.1584595E0,-1.8913549E0,-2.5180745E0,-2.0453644E0,-1.5194331E0,-1.794943E-1,-2.6128318E0,-2.260952E0,-1.2439154E0,1.8032436E-1,2.1237688E0,8.8335574E-1,-3.389699E-1,-1.4829481E0,-1.8107794E-1,9.685691E-1,-1.3419703E0,-1.9806722E0,-1.3188726E0,-8.7416023E-1,1.4757348E0,-1.0409154E-1,-7.897272E-2,3.1546155E-1,9.106657E-1,1.6925548E-1,2.0118743E-1,-3.8455583E-2,3.0974045E0,3.9485657E0,2.025545E-1,1.499658E0,5.0849694E-1,2.4217589E-1,-1.4296389E0,-7.671176E-1,2.8521216E-1,6.5727234E-1,-3.787183E-1,5.036128E-1,-2.1268291E0,-9.771121E-2,1.2868781E0,2.6188558E-1,-1.4082581E0,2.0090065E0,-7.9417837E-1,-1.1763439E0,3.2744864E-1,-5.065906E-1,3.260922E0,4.278438E0,3.210891E0,1.4752972E0,2.936018E0,8.13984E-1,8.0661243E-1,2.3312266E0,2.7049594E0,1.3041334E0,2.3822396E0,1.226619E0,2.7122219E0,3.331985E0,5.762049E-1,2.5430236E0,1.2784431E0,3.5413685E-1],"split_indices":[1,28,11,7,12,8,11,8,7,11,1,7,0,12,0,6,6,0,8,7,11,0,7,28,0,28,7,8,8,6,6,0,0,13,1,6,0,0,0,7,0,0,0,12,6,7,7,7,6,6,28,7,28,0,0,0,0,11,0,0,11,2,28,11,3,0,4,6,6,10,8,8,8,0,0,0,0,0,0,28,28,6,28,6,7,7,8,28,6,6,6,6,28,0,7,19,12,0,0,28,12,0,0,28,0,19,9,2,0,3,3,0,4,4,9,2,8,19,9,2,1,0,6,1,6,13,6,2,2,12,6,6,12,6,6,28,22,6,6,4,11,8,6,12,7,11,12,1,2,1,6,0,6,7,7,28,0,6,3,0,6,1,15,4,14,11,0,0,0,11,0,14,19,6,14,3,1,9,14,3,3,2,0,2,15,0,3,0,0,1,2,6,0,3,0,16,6,0,2,3,0,0,6,13,0,14,27,0,2,2,0,0,2,6,15,6,0,5,12,5,0,6,0,0,6,6,6,6,0,2,11,12,6,28,2,15,0,6,6,6,6,0,4,6,13,11,11,11,6,28,0,28,1,7,7,16,0,14,4,0,12,28,28,28,19,7,6,1,2,13,1,0,0,0,22,0,0,5,0,0,0,28,0,15,0,0,0,0,0,0,0,0,0,0,0,0,0,0,0,0,0,0,0,0,0,0,0,0,0,0,0,0,0,0,0,0,0,0,0,0,0,0,0,0,0,0,0,0,0,0,0,0,0,0,0,0,0,0,0,0,0,0,0,0,0,0,0,0,0,0,0,0,0,0,0,0,0,0,0,0,0,0,0,0,0,0,0,0,0,0,0,0,0,0,0,0,0,0,0,0,0,0,0,0,0,0,0,0,0,0,0,0,0,0,0,0,0,0,0,0,0,0,0,0,0,0,0,0,0,0,0,0,0,0,0,0,0,0,0,0,0,0,0,0,0,0,0,0,0,0,0,0,0,0,0,0,0,0,0,0,0,0,0,0,0,0,0,0,0,0,0,0,0,0,0,0,0,0,0,0,0,0,0,0,0,0,0,0,0,0,0,0,0,0,0,0,0,0,0,0,0,0,0,0,0],"split_type":[0,0,0,0,0,0,0,0,0,0,0,0,0,0,0,0,0,0,0,0,0,0,0,0,0,0,0,0,0,0,0,0,0,0,0,0,0,0,0,0,0,0,0,0,0,0,0,0,0,0,0,0,0,0,0,0,0,0,0,0,0,0,0,0,0,0,0,0,0,0,0,0,0,0,0,0,0,0,0,0,0,0,0,0,0,0,0,0,0,0,0,0,0,0,0,0,0,0,0,0,0,0,0,0,0,0,0,0,0,0,0,0,0,0,0,0,0,0,0,0,0,0,0,0,0,0,0,0,0,0,0,0,0,0,0,0,0,0,0,0,0,0,0,0,0,0,0,0,0,0,0,0,0,0,0,0,0,0,0,0,0,0,0,0,0,0,0,0,0,0,0,0,0,0,0,0,0,0,0,0,0,0,0,0,0,0,0,0,0,0,0,0,0,0,0,0,0,0,0,0,0,0,0,0,0,0,0,0,0,0,0,0,0,0,0,0,0,0,0,0,0,0,0,0,0,0,0,0,0,0,0,0,0,0,0,0,0,0,0,0,0,0,0,0,0,0,0,0,0,0,0,0,0,0,0,0,0,0,0,0,0,0,0,0,0,0,0,0,0,0,0,0,0,0,0,0,0,0,0,0,0,0,0,0,0,0,0,0,0,0,0,0,0,0,0,0,0,0,0,0,0,0,0,0,0,0,0,0,0,0,0,0,0,0,0,0,0,0,0,0,0,0,0,0,0,0,0,0,0,0,0,0,0,0,0,0,0,0,0,0,0,0,0,0,0,0,0,0,0,0,0,0,0,0,0,0,0,0,0,0,0,0,0,0,0,0,0,0,0,0,0,0,0,0,0,0,0,0,0,0,0,0,0,0,0,0,0,0,0,0,0,0,0,0,0,0,0,0,0,0,0,0,0,0,0,0,0,0,0,0,0,0,0,0,0,0,0,0,0,0,0,0,0,0,0,0,0,0,0,0,0,0,0,0,0,0,0,0,0,0,0,0,0,0,0,0,0,0,0,0,0,0,0,0,0,0,0,0,0,0,0,0,0,0,0,0,0,0,0,0,0,0,0,0,0,0,0,0,0,0,0,0,0,0,0],"sum_hessian":[3.6474E4,6.439E3,3.0035E4,2.703E3,3.736E3,2.9028E4,1.007E3,1.275E3,1.428E3,3.527E3,2.09E2,8.4E3,2.0628E4,8.28E2,1.79E2,6.46E2,6.29E2,1.131E3,2.97E2,2.948E3,5.79E2,4.7E1,1.62E2,3.221E3,5.179E3,1.1671E4,8.957E3,7.28E2,1E2,3.54E2,2.92E2,3.81E2,2.48E2,5.52E2,5.79E2,1.42E2,1.55E2,1.613E3,1.335E3,5.26E2,5.3E1,1.17E2,4.5E1,1.776E3,1.445E3,2.955E3,2.224E3,6.586E3,5.085E3,3.056E3,5.901E3,4.39E2,2.89E2,7.9E1,2.1E1,8.3E1,2.71E2,1.72E2,1.2E2,1.19E2,2.62E2,4.1E2,1.42E2,4.77E2,1.02E2,3.9E1,1.03E2,4.61E2,1.152E3,1.5E1,1.32E3,2.96E2,2.3E2,2E1,9.7E1,1.746E3,3E1,5.73E2,8.72E2,1.617E3,1.338E3,1.257E3,9.67E2,2.45E3,4.136E3,1.341E3,3.744E3,8.87E2,2.169E3,3.65E3,2.251E3,2.9E2,1.49E2,4.9E1,2.4E2,7.1E1,2E2,1.43E2,2.9E1,3.2E1,8.8E1,2.29E2,3.3E1,2.34E2,1.76E2,5.3E1,8.9E1,4.71E2,6E0,8.7E1,1.5E1,3E0,1E2,2.97E2,1.64E2,2.39E2,9.13E2,1E1,5E0,3.76E2,9.44E2,6.9E1,2.27E2,7.2E1,1.58E2,9.43E2,8.03E2,3.14E2,2.59E2,5.88E2,2.84E2,7.63E2,8.54E2,6.9E2,6.48E2,5.44E2,7.13E2,5.27E2,4.4E2,7.97E2,1.653E3,2.752E3,1.384E3,4.18E2,9.23E2,3.565E3,1.79E2,5.85E2,3.02E2,9.68E2,1.201E3,1.315E3,2.335E3,4.85E2,1.766E3,1.5E2,1.4E2,1.1E1,1.38E2,6E0,4.3E1,1.59E2,8.1E1,3.4E1,3.7E1,1.83E2,1.7E1,1E0,3.1E1,7.9E1,9E0,1.33E2,9.6E1,2.06E2,2.8E1,5E0,1.71E2,3.6E1,1.7E1,3.5E1,5.4E1,4.67E2,4E0,2.7E1,6E1,1.2E1,3E0,9.8E1,2E0,1.44E2,1.53E2,4.4E1,1.2E2,2.34E2,5E0,2.28E2,6.85E2,1E0,9E0,3E0,2E0,4E0,3.72E2,1.13E2,8.31E2,1.4E1,5.5E1,1.15E2,1.12E2,3E0,6.9E1,1.46E2,1.2E1,7.51E2,1.92E2,7.11E2,9.2E1,5E0,3.09E2,7E0,2.52E2,5.83E2,5E0,1.12E2,1.72E2,5.06E2,2.57E2,8.53E2,1E0,2.21E2,4.69E2,2.25E2,4.23E2,4.23E2,1.21E2,6.98E2,1.5E1,3.25E2,2.02E2,2.91E2,1.49E2,4.93E2,3.04E2,6.92E2,9.61E2,2.623E3,1.29E2,4.59E2,9.25E2,4.03E2,1.5E1,5.18E2,4.05E2,1.386E3,2.179E3,1.73E2,6E0,4.2E1,5.43E2,2E0,3E2,1.06E2,8.62E2,7.68E2,4.33E2,1.124E3,1.211E3,2.44E2,2.41E2,1.057E3,7.09E2,4E0,1.46E2,1.8E1,1.22E2,3E0,8E0,1.36E2,2E0,2.4E1,1.9E1,1.1E1,1.48E2,7.7E1,4E0,1E0,3.3E1,1E0,3.6E1,1.77E2,6E0,6.4E1,1.5E1,1E0,1.32E2,8.3E1,1.3E1,1.34E2,7.2E1,1.2E1,1.6E1,1E0,4E0,2.3E1,1.48E2,2.5E1,1.1E1,4E0,1.3E1,3.4E1,1E0,3.8E1,1.6E1,4.23E2,4.4E1,1.9E1,8E0,3E0,5.7E1,6E0,6E0,2E0,1E0,2.9E1,1.15E2,1.47E2,6E0,1.5E1,2.9E1,3.5E1,1.99E2,3E1,1.98E2,4.86E2,1.99E2,7E0,2E0,2E0,1E0,2E0,2E0,2.27E2,1.45E2,9.5E1,1.8E1,1.5E2,6.81E2,1.1E1,3E0,1.7E1,3.8E1,4.1E1,7.4E1,1.11E2,1E0,2E0,1E0,5E0,6.4E1,4E0,8E0,6.08E2,1.43E2,1.4E2,5.2E1,4.86E2,2.25E2,4.5E1,4.7E1,1E0,4E0,2.74E2,3.5E1,6E0,1E0,2.81E2,3.02E2,1.02E2,1E1,1.06E2,6.6E1,4.46E2,6E1,2.15E2,4.2E1,5.89E2,2.64E2,1.44E2,7.7E1,1.79E2,2.9E2,2.1E2,1.5E1,1.73E2,2.5E2,2.74E2,1.49E2,3E0,1.18E2,5.2E1,6.46E2,6E0,9E0,1.72E2,1.53E2,1.11E2,9.1E1,1.86E2,1.05E2,8.2E1,6.7E1,4.04E2,8.9E1,2.89E2,1.5E1,3.24E2,3.68E2,6.7E2,2.91E2,1.294E3,1.329E3,4.4E1,8.5E1,2.27E2,2.32E2,6.76E2,2.49E2,3.92E2,1.1E1,5.09E2,9E0,2.8E1,3.77E2,5.9E2,7.96E2,1.505E3,6.74E2,1.8E1,1.55E2,5E0,3.7E1,5.31E2,1.2E1,1E0,1E0,2.6E2,4E1,4.3E1,6.3E1,6.26E2,2.36E2,4.21E2,3.47E2,1.25E2,3.08E2,8.13E2,3.11E2,6.2E2,5.91E2,4.3E1,2.01E2,2E0,2.39E2,8.14E2,2.43E2,1.07E2,6.02E2,7E1,7.6E1,1.18E2,4E0,1.35E2,1E0,2E0,2.2E1,1E0,1.8E1,7E0,4E0,6.5E1,8.3E1,1E0,7.6E1,3E0,1E0],"tree_param":{"num_deleted":"0","num_feature":"29","num_nodes":"485","size_leaf_vector":"1"}},{"base_weights":[1.0880688E-2,4.3408585E0,-9.1750747E-1,5.85643E0,2.6669664E0,-1.226719E0,7.988264E0,5.603081E0,9.633709E0,9.953672E-3,4.989001E0,7.53079E-1,-2.0329168E0,7.4420643E0,1.0459437E1,5.2026606E0,7.6470127E0,1.0705908E1,8.359968E0,-8.8912576E-1,3.4252152E0,4.7506194E0,6.247759E0,2.7428427E0,-4.8471478E-1,-6.767046E-1,-2.817063E0,7.1100316E0,9.764933E0,2.3232186E0,1.0677133E1,4.4967165E0,5.6543207E0,7.053946E0,1.0845865E1,1.0161154E1,3.9915931E0,9.098146E0,2.1173408E0,-2.116506E0,2.826508E-1,3.9017444E0,2.9664404E0,-1.6538727E-1,4.804842E0,7.2266307E0,5.6861744E0,8.097282E-1,5.1165643E0,-1.8451605E0,1.3229086E0,2.6344526E0,-1.952623E0,-3.6587894E0,-1.4268155E0,7.587055E0,6.361755E0,5.872009E0,1.0036668E1,1.103662E1,8.536884E0,5.6707335E0,3.526243E0,4.920783E0,6.063234E0,8.15591E0,6.4176836E0,1.1702035E1,2.3771894E0,7.073932E0,1.0601973E1,1.9297688E0,2.9265862E0,-1.4918835E0,-2.3166423E0,7.21092E-1,-3.828776E-1,3.0188189E0,4.203814E0,8.9516133E-1,3.248577E-1,1.2456048E0,-1.0787317E0,4.712863E0,2.2556338E0,1.8539662E0,7.390585E0,7.002351E0,5.372922E0,6.382783E-1,1.0445637E1,8.42749E0,2.9337602E0,-3.0313318E0,-4.1045517E-1,-8.4331416E-2,3.1503725E0,8.353779E-1,6.0817285E0,-3.1345468E0,-1.6086341E-1,-4.5602236E0,-2.6186225E0,-2.3785007E0,-4.032639E-1,6.204154E0,7.8959303E0,4.5560746E0,6.70998E0,6.176119E0,5.158694E-1,1.037103E1,6.601332E0,8.439746E0,1.1358502E1,9.120323E0,1.4632664E0,8.63198E-1,6.220627E0,3.8682656E0,9.0470386E-1,4.104405E0,5.298947E0,7.761309E0,5.6354938E0,8.343349E0,3.621928E0,4.730019E0,6.80405E0,8.355234E-1,3.5423274E0,7.3127112E0,5.596533E-1,1.1147705E1,7.421188E0,-3.5441005E0,-1.1716186E0,-2.0881016E0,-3.2986646E0,1.931439E0,4.061598E-1,4.5882988E-1,-7.295436E-1,3.6203516E-1,3.1331248E0,4.4623075E0,3.156241E0,2.0379338E0,-2.1139982E0,5.297896E0,4.4744816E0,6.5083206E-1,1.3613176E-1,8.580022E0,6.2454166E0,-5.5625726E-2,7.2656794E0,4.5352354E0,6.0796313E0,-3.6306933E-1,1.8131962E0,1.1598809E0,3.22982E0,7.380157E0,9.885597E0,1.3951875E0,6.1031833E0,-3.782686E0,-2.3564007E0,-2.3515346E0,1.6568737E0,7.90899E-1,-7.5228137E-1,9.9088156E-1,5.728742E0,-1.0561406E-2,1.985931E0,5.042705E0,7.4984584E0,-2.0463398E0,-4.1940746E0,1.1610438E0,-1.2263936E0,-4.8808584E0,-3.4089598E-1,-3.2159488E0,-1.478388E0,-5.1443796E0,-8.057508E-1,3.027201E0,-1.685244E0,8.248595E0,5.448194E0,8.123858E0,5.9466286E0,4.6137714E0,2.5933915E-1,7.0441194E0,5.6085176E0,1.9701352E0,5.158694E-1,1.0442008E1,6.826218E-1,1.2796346E0,2.565391E0,2.591702E0,7.279599E-1,8.7795985E-1,1.1405158E1,1.1706132E0,2.8294473E0,9.650698E0,5.87749E0,3.051562E0,4.252487E0,3.894803E0,5.518439E0,4.7065735E0,5.763168E0,8.707195E0,6.574418E0,7.429562E0,4.994133E0,1.108041E0,8.478218E0,7.6980543E-1,5.17924E0,2.587567E0,1.4535187E0,7.4213085E0,6.1101913E0,9.462044E-1,2.322898E0,1.266457E1,9.839903E0,2.3161983E0,4.842848E-1,-5.75053E-1,-5.3812165E0,3.9922768E-1,-1.9044404E0,-2.2338605E0,-8.301403E-1,-1.7864877E0,-4.126307E0,1.4884684E0,4.0222535E0,-7.16956E-1,8.225845E-1,2.0328746E0,-2.8771937E-1,-8.0258226E-1,1.0373178E0,9.862677E-1,4.4617084E-1,4.576493E0,2.2722437E0,3.684126E0,9.5856476E-1,7.7047676E-1,6.704521E-2,-3.1928325E0,5.7217026E-1,3.4460726E0,5.7930026E0,5.1162496E0,4.3811693E0,2.888081E0,8.963474E0,2.7761623E-1,6.3389196E0,7.583873E0,2.086108E0,5.022268E0,2.903353E0,4.5684004E0,6.7265935E0,-1.3276327E0,2.7308542E-2,1.3630044E0,5.2403283E0,4.1843578E-1,7.5047107E0,1.1046569E0,1.0031602E1,8.053531E-1,3.1793745E0,5.588013E0,1.1728684E1,-3.1654358E0,-4.9809933E0,-2.0597355E0,-3.2085445E0,-6.9993764E-1,-3.1266475E0,5.1639957E0,-2.1639621E-1,-8.16143E-1,6.369546E0,-4.627659E-1,-8.9789516E-1,7.7218753E-1,2.0189078E0,6.735414E0,3.7308955E0,9.4071704E-1,-1.2230522E-1,6.302737E-1,2.0894372E0,4.889201E0,2.5810502E0,1.4819676E0,7.5739903E0,-2.9932191E0,-1.1502461E0,-6.6295996E0,-1.9066011E0,1.1364118E0,2.6141224E0,-2.6434503E0,1.2873001E0,-4.5368433E0,-6.4271994E0,-6.1816686E-1,3.0506077E0,-1.362271E0,-2.523898E0,1.0494032E0,-2.0623488E0,-5.704575E0,-4.581565E0,-2.0095532E0,7.765567E-1,2.075893E0,4.610688E0,-2.9084358E-1,-2.9313428E0,8.525694E0,4.059932E-1,4.6859856E0,7.324665E0,8.59897E0,7.087216E0,7.4866524E0,3.7694094E0,7.7756864E-1,4.7846236E0,8.048932E0,6.620962E0,4.2558317E0,6.2624474E0,8.158694E-1,3.1511319E0,3.4686992E0,1.9632665E0,1.4282725E0,3.291641E0,1.860977E0,1.464759E0,9.19704E-1,2.2266884E-1,1.3481004E0,1.1622164E0,1.3886106E0,1.0548966E0,1.8064226E0,5.2491647E-1,1.5833045E0,1.0871229E0,1.7509018E0,6.651788E-1,1.8314258E0,2.795402E0,5.903826E-1,2.6648936E0,1.9332081E0,2.3573828E0,1.6176313E0,1.3207879E0,2.0576017E0,2.690867E0,4.0217087E-1,3.9808273E-2,1.7759343E0,3.3256188E-1,8.590033E-1,2.2266884E-1,2.25548E0,3.7894136E-1,1.857664E0,9.300221E-1,4.842848E-1,3.9042156E0,1.2069474E0,3.057974E0,2.559209E-1,-9.718842E-1,-3.4617767E-1,-1.8577204E0,-1.6130723E-1,7.656306E-1,-1.1219301E0,-4.5133644E-1,-7.729634E-1,-5.1175565E-1,3.972222E-1,-5.7513785E-1,-1.054901E0,-1.07572414E-1,-1.6916202E0,-9.439859E-1,2.8623602E-1,9.642603E-1,1.3174188E0,-5.7472233E-3,-3.449232E-1,1.1140035E0,-5.2956444E-1,3.3403817E-1,1.0485445E0,7.58581E-2,5.4569775E-1,-1.921153E-1,7.8858346E-1,-2.585703E-1,7.982568E-1,1.4196808E0,7.9840624E-1,4.9003888E-2,1.4117448E0,6.8820703E-1,3.8235027E-1,6.533852E-2,-1.1138413E0,6.704521E-2,2.3966332E-1,-1.6192818E-2,-1.6546149E0,1.1217154E0,7.807564E-1,1.8469225E0,9.288693E-1,1.610427E0,1.3428891E0,1.1320759E0,1.070155E0,1.2761623E-1,1.7837421E0,3.052237E0,2.1028345E0,1.380504E0,9.2583245E-1,2.3490298E0,9.437428E-2,8.443743E-1,1.0447562E0,1.5938629E0,1.0975553E0,2.3498134E-1,9.3042374E-1,1.6018895E0,1.7628345E0,2.4340343E0,-2.8564882E-1,-7.4553823E-1,-4.7781873E-2,6.638894E-1,7.205534E-1,-2.6447675E-1,1.4425833E0,2.767875E0,1.7057093E0,-4.2211723E-1,2.1655667E0,2.823954E0,-8.38356E-2,6.361641E-1,5.1236117E-1,3.0180357E0,7.0021677E-1,-5.768047E-1,1.1315156E0,1.2869391E-1,2.252276E0,1.3207209E0,3.6911254E0,1.1380959E0,-1.8307726E-1,-9.6311647E-1,-1.7087257E0,-3.8242152E-1,-4.5713213E-1,-7.9815274E-1,-8.287442E-1,-1.5984108E0,-4.269527E-1,-1.2882632E-1,-1.2472426E0,-7.434833E-1,1.4834353E0,2.3196292E0,-3.1505632E-1,6.180431E-1,-1.1292683E-1,-2.9415894E-1,4.286671E-3,1.9588927E0,-3.9580953E-1,-8.102201E-2,-2.5958297E-1,-9.893805E-1,4.0844208E-1,-2.8498507E-1,6.8277127E-1,-2.8921294E-1,1.9235169E0,2.9807901E0,4.846467E-1,1.8774209E0,5.914389E-1,-5.6518044E-2,-1.3974363E-1,5.870251E-2,3.0263638E-1,2.9716903E-2,5.93749E-1,9.984688E-1,1.6250516E-1,1.4826971E0,1.6244946E-1,7.865768E-1,2.4744673E0,2.0519624E0,-1.232491E0,-6.622268E-1,-3.5301623E-1,3.1434107E0,1.2624261E0,-1.9944872E0,-4.077016E-1,-9.946683E-1,6.2944424E-1,3.0542463E-1,-1.0017633E0,-5.376434E-1,3.3258405E-1,7.7359205E-1,-1.5624144E0,-2.544465E-1,-1.9690374E0,3.176776E-1,-1.541209E0,-4.128051E-2,-2.652426E-1,-1.2451684E0,9.095887E-1,1.837091E-1,-8.373945E-1,-5.07549E-1,-1.6013628E0,-1.8526608E0,-1.377079E0,-5.118416E-1,7.5738914E-3,-1.1977031E0,2.4539666E-2,8.101907E-1,-1.9409372E0,6.531056E-1,1.4792976E0,4.8996225E-1,2.7169228E-1,-1.3876721E-1,-1.5703808E0,-5.934457E-2,5.710436E-1,2.6322145E0,7.2532415E-1,1.5407687E0,2.605082E0,1.4131218E0,2.46925E0,3.4665964E0,3.7358093E-1,2.1394246E0,3.0090232E0,1.1400547E0,1.2386833E0,1.4267197E-1,1.5900412E0,1.1482085E0,1.7083266E0,2.842912E0,2.0516644E0,1.4195101E0,1.3843521E0,9.794884E-2,1.495433E0,2.1680987E0],"categories":[],"categories_nodes":[],"categories_segments":[],"categories_sizes":[],"default_left":[0,0,0,0,0,0,0,0,0,0,0,0,0,0,0,0,0,0,0,0,0,0,0,0,0,0,0,0,0,0,0,0,0,0,0,0,0,0,0,0,0,0,0,0,0,0,0,0,0,0,0,0,0,0,0,0,0,0,0,0,0,0,0,0,0,0,0,0,0,0,0,0,0,0,0,0,0,0,0,0,0,0,0,0,0,0,0,0,0,0,0,0,0,0,0,0,0,0,0,0,0,0,0,0,0,0,0,0,0,0,0,0,0,0,0,0,0,0,0,0,0,0,0,0,0,0,0,0,0,0,0,0,0,0,0,0,0,0,0,0,0,0,0,0,0,0,0,0,0,0,0,0,0,0,0,0,0,0,0,0,0,0,0,0,0,0,0,0,0,0,0,0,0,0,0,0,0,0,0,0,0,0,0,0,0,0,0,0,0,0,0,0,0,0,0,0,0,0,0,0,0,0,0,0,0,0,0,0,0,0,0,0,0,0,0,0,0,0,0,0,0,0,0,0,0,0,0,0,0,0,0,0,0,0,0,0,0,0,0,0,0,0,0,0,0,0,0,0,0,0,0,0,0,0,0,0,0,0,0,0,0,0,0,0,0,0,0,0,0,0,0,0,0,0,0,0,0,0,0,0,0,0,0,0,0,0,0,0,0,0,0,0,0,0,0,0,0,0,0,0,0,0,0,0,0,0,0,0,0,0,0,0,0,0,0,0,0,0,0,0,0,0,0,0,0,0,0,0,0,0,0,0,0,0,0,0,0,0,0,0,0,0,0,0,0,0,0,0,0,0,0,0,0,0,0,0,0,0,0,0,0,0,0,0,0,0,0,0,0,0,0,0,0,0,0,0,0,0,0,0,0,0,0,0,0,0,0,0,0,0,0,0,0,0,0,0,0,0,0,0,0,0,0,0,0,0,0,0,0,0,0,0,0,0,0,0,0,0,0,0,0,0,0,0,0,0,0,0,0,0,0,0,0,0,0,0,0,0,0,0,0,0,0,0,0,0,0,0,0,0,0,0,0,0,0,0,0,0,0,0,0,0,0,0,0,0,0,0,0,0,0,0,0,0,0,0,0,0,0,0,0,0,0,0,0,0,0,0,0,0,0,0,0,0,0,0,0,0,0,0,0,0,0,0,0,0,0,0,0,0,0,0,0,0,0,0,0,0,0,0,0,0,0,0,0,0,0,0,0,0,0,0,0,0,0,0,0,0,0,0,0,0,0,0,0,0,0,0,0,0,0,0,0,0,0,0,0,0,0,0,0,0,0,0,0,0,0,0,0,0,0,0,0,0,0,0,0,0,0,0,0,0,0,0,0,0,0,0,0,0,0,0,0,0,0,0,0,0,0],"id":2,"left_children":[1,3,5,7,9,11,13,15,17,19,21,23,25,27,29,31,33,35,37,39,41,43,45,47,49,51,53,55,57,-1,59,61,63,65,67,69,-1,71,-1,73,75,77,79,81,83,85,87,89,91,93,95,97,99,101,103,105,107,109,111,113,115,117,119,121,123,125,127,129,-1,131,133,-1,-1,135,137,139,141,143,145,-1,-1,-1,147,149,-1,151,153,155,157,159,161,163,165,167,169,171,173,175,177,179,181,183,185,187,189,191,193,195,197,199,-1,201,203,205,207,209,-1,-1,211,213,-1,215,217,219,221,223,225,227,229,-1,-1,231,-1,233,235,237,239,241,243,245,247,249,251,-1,253,255,257,259,261,263,265,-1,-1,267,269,-1,271,273,275,277,279,-1,-1,281,283,285,287,289,291,293,295,297,299,301,303,305,307,309,311,313,315,317,319,321,323,325,327,329,331,333,335,337,339,341,343,345,-1,347,349,-1,-1,351,-1,-1,-1,-1,-1,-1,353,-1,-1,355,357,359,361,363,365,367,369,371,373,375,377,-1,379,381,383,385,-1,387,389,-1,-1,391,393,-1,-1,395,397,399,401,403,405,407,409,411,413,415,417,419,421,423,-1,-1,-1,425,427,429,431,-1,-1,433,435,437,439,441,443,445,447,-1,449,451,453,455,457,459,461,463,465,467,469,471,473,475,477,479,481,483,485,487,489,491,493,495,497,499,501,503,505,507,509,511,513,515,517,519,521,523,525,527,-1,529,531,533,535,537,539,541,-1,543,545,547,549,551,-1,-1,553,555,557,559,561,563,565,567,569,571,573,575,-1,577,579,581,583,585,587,-1,589,591,593,595,597,-1,-1,-1,-1,-1,-1,-1,-1,-1,-1,-1,-1,-1,-1,-1,-1,-1,-1,-1,-1,-1,-1,-1,-1,-1,-1,-1,-1,-1,-1,-1,-1,-1,-1,-1,-1,-1,-1,-1,-1,-1,-1,-1,-1,-1,-1,-1,-1,-1,-1,-1,-1,-1,-1,-1,-1,-1,-1,-1,-1,-1,-1,-1,-1,-1,-1,-1,-1,-1,-1,-1,-1,-1,-1,-1,-1,-1,-1,-1,-1,-1,-1,-1,-1,-1,-1,-1,-1,-1,-1,-1,-1,-1,-1,-1,-1,-1,-1,-1,-1,-1,-1,-1,-1,-1,-1,-1,-1,-1,-1,-1,-1,-1,-1,-1,-1,-1,-1,-1,-1,-1,-1,-1,-1,-1,-1,-1,-1,-1,-1,-1,-1,-1,-1,-1,-1,-1,-1,-1,-1,-1,-1,-1,-1,-1,-1,-1,-1,-1,-1,-1,-1,-1,-1,-1,-1,-1,-1,-1,-1,-1,-1,-1,-1,-1,-1,-1,-1,-1,-1,-1,-1,-1,-1,-1,-1,-1,-1,-1,-1,-1,-1,-1,-1,-1,-1,-1,-1,-1,-1,-1,-1,-1,-1,-1,-1,-1,-1,-1,-1,-1,-1,-1,-1,-1,-1,-1,-1,-1,-1,-1,-1,-1,-1,-1,-1,-1,-1,-1,-1,-1,-1,-1,-1,-1,-1,-1,-1,-1,-1,-1,-1,-1,-1,-1,-1,-1,-1,-1,-1,-1,-1,-1,-1,-1,-1,-1,-1],"loss_changes":[1.4662984E5,1.6322039E4,8.272194E4,3.179625E3,1.8891494E4,4.6334984E4,1.2827109E3,2.5538281E3,1.9866211E2,4.390921E3,4.60625E2,2.0692297E4,2.1936383E4,5.6995703E2,2.371875E1,8.2046875E2,9.043125E2,2.1983398E1,3.287207E1,1.6286584E3,5.3574463E1,3.6811133E2,1.0018652E2,1.478057E4,1.2740959E4,3.1940154E4,1.529057E4,2.1194531E2,4.790625E1,0E0,3.196289E1,1.1649297E3,4.5428906E2,2.5545898E2,1.049043E2,5.5648438E1,0E0,4.409961E1,0E0,6.567383E1,1.6951721E2,2.5448242E1,1.890625E0,6.757133E1,3.0480664E2,6.557617E1,3.1642578E1,2.9290703E3,1.0425668E4,5.029296E3,5.722254E3,1.3037528E4,1.155591E4,7.6213984E3,4.8023223E3,1.3895508E2,1.5177637E2,7.449951E-1,3.836133E1,1.8652344E1,1.5295044E1,7.0252246E2,8.8220215E1,1.582373E2,7.0583984E2,1.0320801E2,1.5234863E2,2.2734863E1,0E0,5.0130615E0,5.961035E1,0E0,0E0,8.589133E1,8.6700195E1,1.3262758E2,6.773855E1,4.5040894E0,1.4078125E1,0E0,0E0,0E0,4.9480293E1,1.6051953E2,0E0,7.82465E-1,6.491699E1,5.6236816E1,5.5307373E1,2.0560059E3,2.3730469E1,8.036133E2,4.248571E3,8.1159375E2,5.3771016E3,7.360344E2,5.3841143E3,1.3460923E3,1.0235117E3,3.7824355E3,3.0579385E3,5.8968203E3,2.5711367E3,1.1110197E4,1.0458644E4,8.6428955E1,1.0986133E2,6.661377E0,4.9191406E1,2.6474915E0,0E0,2.3932617E1,1.3628815E1,1.8028564E0,1.3438477E1,5.444336E-1,0E0,0E0,4.034795E2,9.3399414E1,0E0,3.4523438E1,8.149707E1,1.7290137E2,9.156289E2,6.2753906E1,3.1546158E1,1.265625E0,5.230371E1,0E0,0E0,6.30188E-1,0E0,1.027832E1,1.3621826E1,9.508626E1,1.3889833E2,6.067102E1,8.899713E1,6.0697205E1,1.3107614E2,8.049183E1,5.293164E1,0E0,4.51532E0,9.856934E0,2.4311447E1,3.2750053E0,3.370409E1,3.2568945E2,3.417578E1,0E0,0E0,6.141626E1,1.8010986E1,0E0,3.0326172E1,3.94635E1,4.064331E1,3.5549396E2,1.2333225E3,0E0,0E0,2.8994336E2,2.9276562E2,6.1728845E2,7.60416E2,5.493301E2,2.0953662E2,8.824121E2,4.264909E3,4.8911885E3,2.9684875E1,1.17147644E2,8.618008E2,8.494204E1,8.091016E1,1.8695801E2,1.2646875E2,1.3745088E3,9.263408E3,1.7036841E2,4.2849834E3,2.1263516E3,9.0671265E2,2.263457E3,1.9240867E3,2.6581836E2,3.1063608E3,9.650586E2,3.0068647E3,2.8586304E1,5.8643677E1,9.469336E1,1.09251465E2,4.5253906E0,0E0,2.3668945E1,2.7306274E1,0E0,0E0,1.0544922E1,0E0,0E0,0E0,0E0,0E0,0E0,1.4485352E1,0E0,0E0,1.6745557E2,8.574902E1,1.3760986E0,3.400879E0,3.0388916E1,3.116632E1,9.15708E1,4.336133E1,1.1956152E2,9.927803E2,4.055664E1,1.2056152E2,0E0,5.386328E1,1.2766747E0,8.510284E0,4.192543E-1,0E0,5.9765137E1,8.703125E0,0E0,0E0,8.712402E1,4.3259033E1,0E0,0E0,3.320617E1,3.0574615E1,8.003787E1,5.457025E1,5.0791504E1,8.917762E1,7.037126E1,5.4860596E1,5.3183945E1,1.798639E1,1.4999034E2,1.555222E2,5.637931E1,3.6084133E1,3.523813E1,0E0,0E0,0E0,1.0087402E1,4.4888363E0,1.6189545E1,1.1266351E0,0E0,0E0,1.5040848E1,6.109283E-1,2.3591443E2,3.271709E2,4.137378E1,3.119629E1,5.172249E0,7.467993E1,0E0,2.2493774E1,4.6295166E0,2.9861164E0,4.3184814E0,2.5952576E1,1.1724304E1,1.0119385E1,1.1584622E2,2.748038E2,1.6623402E3,1.1566821E2,7.5307556E1,1.1336133E2,7.6231036E0,3.8125E1,1.8561252E3,2.3624231E2,5.65501E2,5.82771E1,5.627539E1,6.7620166E2,2.0105493E2,1.9233032E2,4.2822685E1,3.038247E2,8.899512E1,8.069833E2,3.0279419E1,1.2403613E2,3.942319E1,3.4253937E1,4.4477478E2,7.2721954E1,2.3880273E2,7.917903E2,9.813278E1,7.8189445E1,8.5462265E0,6.772656E1,9.062793E1,0E0,3.9406967E0,9.1578125E1,6.822754E2,2.6969604E2,1.9123828E2,6.5901855E2,1.0791052E2,0E0,4.4949854E2,9.728467E1,8.2105E3,7.5668555E2,6.5516705E2,0E0,0E0,4.349414E3,2.104253E2,2.8103906E2,4.647754E1,3.8476562E0,3.7361226E3,9.4220105E2,3.649453E2,2.2274219E2,1.6847934E2,5.7535303E3,1.6191895E1,0E0,3.758728E1,1.9491333E1,1.3561914E2,1.8230957E1,1.7753784E2,2.053711E1,0E0,1.4276123E0,1.1072266E2,2.2396973E1,3.090857E1,1.203772E1,0E0,0E0,0E0,0E0,0E0,0E0,0E0,0E0,0E0,0E0,0E0,0E0,0E0,0E0,0E0,0E0,0E0,0E0,0E0,0E0,0E0,0E0,0E0,0E0,0E0,0E0,0E0,0E0,0E0,0E0,0E0,0E0,0E0,0E0,0E0,0E0,0E0,0E0,0E0,0E0,0E0,0E0,0E0,0E0,0E0,0E0,0E0,0E0,0E0,0E0,0E0,0E0,0E0,0E0,0E0,0E0,0E0,0E0,0E0,0E0,0E0,0E0,0E0,0E0,0E0,0E0,0E0,0E0,0E0,0E0,0E0,0E0,0E0,0E0,0E0,0E0,0E0,0E0,0E0,0E0,0E0,0E0,0E0,0E0,0E0,0E0,0E0,0E0,0E0,0E0,0E0,0E0,0E0,0E0,0E0,0E0,0E0,0E0,0E0,0E0,0E0,0E0,0E0,0E0,0E0,0E0,0E0,0E0,0E0,0E0,0E0,0E0,0E0,0E0,0E0,0E0,0E0,0E0,0E0,0E0,0E0,0E0,0E0,0E0,0E0,0E0,0E0,0E0,0E0,0E0,0E0,0E0,0E0,0E0,0E0,0E0,0E0,0E0,0E0,0E0,0E0,0E0,0E0,0E0,0E0,0E0,0E0,0E0,0E0,0E0,0E0,0E0,0E0,0E0,0E0,0E0,0E0,0E0,0E0,0E0,0E0,0E0,0E0,0E0,0E0,0E0,0E0,0E0,0E0,0E0,0E0,0E0,0E0,0E0,0E0,0E0,0E0,0E0,0E0,0E0,0E0,0E0,0E0,0E0,0E0,0E0,0E0,0E0,0E0,0E0,0E0,0E0,0E0,0E0,0E0,0E0,0E0,0E0,0E0,0E0,0E0,0E0,0E0,0E0,0E0,0E0,0E0,0E0,0E0,0E0,0E0,0E0,0E0,0E0,0E0,0E0,0E0,0E0,0E0,0E0,0E0,0E0,0E0,0E0,0E0,0E0,0E0,0E0,0E0,0E0,0E0,0E0,0E0,0E0,0E0,0E0,0E0,0E0,0E0,0E0,0E0,0E0,0E0,0E0,0E0,0E0,0E0,0E0],"parents":[2147483647,0,0,1,1,2,2,3,3,4,4,5,5,6,6,7,7,8,8,9,9,10,10,11,11,12,12,13,13,14,14,15,15,16,16,17,17,18,18,19,19,20,20,21,21,22,22,23,23,24,24,25,25,26,26,27,27,28,28,30,30,31,31,32,32,33,33,34,34,35,35,37,37,39,39,40,40,41,41,42,42,43,43,44,44,45,45,46,46,47,47,48,48,49,49,50,50,51,51,52,52,53,53,54,54,55,55,56,56,57,57,58,58,59,59,60,60,61,61,62,62,63,63,64,64,65,65,66,66,67,67,69,69,70,70,73,73,74,74,75,75,76,76,77,77,78,78,82,82,83,83,85,85,86,86,87,87,88,88,89,89,90,90,91,91,92,92,93,93,94,94,95,95,96,96,97,97,98,98,99,99,100,100,101,101,102,102,103,103,104,104,105,105,106,106,107,107,108,108,109,109,111,111,112,112,113,113,114,114,115,115,118,118,119,119,121,121,122,122,123,123,124,124,125,125,126,126,127,127,128,128,131,131,133,133,134,134,135,135,136,136,137,137,138,138,139,139,140,140,141,141,142,142,144,144,145,145,146,146,147,147,148,148,149,149,150,150,153,153,154,154,156,156,157,157,158,158,159,159,160,160,163,163,164,164,165,165,166,166,167,167,168,168,169,169,170,170,171,171,172,172,173,173,174,174,175,175,176,176,177,177,178,178,179,179,180,180,181,181,182,182,183,183,184,184,185,185,186,186,187,187,188,188,189,189,190,190,191,191,192,192,193,193,194,194,195,195,197,197,198,198,201,201,208,208,211,211,212,212,213,213,214,214,215,215,216,216,217,217,218,218,219,219,220,220,221,221,222,222,224,224,225,225,226,226,227,227,229,229,230,230,233,233,234,234,237,237,238,238,239,239,240,240,241,241,242,242,243,243,244,244,245,245,246,246,247,247,248,248,249,249,250,250,251,251,255,255,256,256,257,257,258,258,261,261,262,262,263,263,264,264,265,265,266,266,267,267,268,268,270,270,271,271,272,272,273,273,274,274,275,275,276,276,277,277,278,278,279,279,280,280,281,281,282,282,283,283,284,284,285,285,286,286,287,287,288,288,289,289,290,290,291,291,292,292,293,293,294,294,295,295,296,296,297,297,298,298,299,299,300,300,301,301,302,302,303,303,304,304,305,305,306,306,307,307,308,308,309,309,311,311,312,312,313,313,314,314,315,315,316,316,317,317,319,319,320,320,321,321,322,322,323,323,326,326,327,327,328,328,329,329,330,330,331,331,332,332,333,333,334,334,335,335,336,336,337,337,339,339,340,340,341,341,342,342,343,343,344,344,346,346,347,347,348,348,349,349,350,350],"right_children":[2,4,6,8,10,12,14,16,18,20,22,24,26,28,30,32,34,36,38,40,42,44,46,48,50,52,54,56,58,-1,60,62,64,66,68,70,-1,72,-1,74,76,78,80,82,84,86,88,90,92,94,96,98,100,102,104,106,108,110,112,114,116,118,120,122,124,126,128,130,-1,132,134,-1,-1,136,138,140,142,144,146,-1,-1,-1,148,150,-1,152,154,156,158,160,162,164,166,168,170,172,174,176,178,180,182,184,186,188,190,192,194,196,198,200,-1,202,204,206,208,210,-1,-1,212,214,-1,216,218,220,222,224,226,228,230,-1,-1,232,-1,234,236,238,240,242,244,246,248,250,252,-1,254,256,258,260,262,264,266,-1,-1,268,270,-1,272,274,276,278,280,-1,-1,282,284,286,288,290,292,294,296,298,300,302,304,306,308,310,312,314,316,318,320,322,324,326,328,330,332,334,336,338,340,342,344,346,-1,348,350,-1,-1,352,-1,-1,-1,-1,-1,-1,354,-1,-1,356,358,360,362,364,366,368,370,372,374,376,378,-1,380,382,384,386,-1,388,390,-1,-1,392,394,-1,-1,396,398,400,402,404,406,408,410,412,414,416,418,420,422,424,-1,-1,-1,426,428,430,432,-1,-1,434,436,438,440,442,444,446,448,-1,450,452,454,456,458,460,462,464,466,468,470,472,474,476,478,480,482,484,486,488,490,492,494,496,498,500,502,504,506,508,510,512,514,516,518,520,522,524,526,528,-1,530,532,534,536,538,540,542,-1,544,546,548,550,552,-1,-1,554,556,558,560,562,564,566,568,570,572,574,576,-1,578,580,582,584,586,588,-1,590,592,594,596,598,-1,-1,-1,-1,-1,-1,-1,-1,-1,-1,-1,-1,-1,-1,-1,-1,-1,-1,-1,-1,-1,-1,-1,-1,-1,-1,-1,-1,-1,-1,-1,-1,-1,-1,-1,-1,-1,-1,-1,-1,-1,-1,-1,-1,-1,-1,-1,-1,-1,-1,-1,-1,-1,-1,-1,-1,-1,-1,-1,-1,-1,-1,-1,-1,-1,-1,-1,-1,-1,-1,-1,-1,-1,-1,-1,-1,-1,-1,-1,-1,-1,-1,-1,-1,-1,-1,-1,-1,-1,-1,-1,-1,-1,-1,-1,-1,-1,-1,-1,-1,-1,-1,-1,-1,-1,-1,-1,-1,-1,-1,-1,-1,-1,-1,-1,-1,-1,-1,-1,-1,-1,-1,-1,-1,-1,-1,-1,-1,-1,-1,-1,-1,-1,-1,-1,-1,-1,-1,-1,-1,-1,-1,-1,-1,-1,-1,-1,-1,-1,-1,-1,-1,-1,-1,-1,-1,-1,-1,-1,-1,-1,-1,-1,-1,-1,-1,-1,-1,-1,-1,-1,-1,-1,-1,-1,-1,-1,-1,-1,-1,-1,-1,-1,-1,-1,-1,-1,-1,-1,-1,-1,-1,-1,-1,-1,-1,-1,-1,-1,-1,-1,-1,-1,-1,-1,-1,-1,-1,-1,-1,-1,-1,-1,-1,-1,-1,-1,-1,-1,-1,-1,-1,-1,-1,-1,-1,-1,-1,-1,-1,-1,-1,-1,-1,-1,-1,-1,-1,-1,-1,-1,-1,-1,-1,-1,-1,-1,-1],"split_conditions":[-4.1733766E-1,2.8412336E-1,2.2081115E0,7.066919E0,-8.079437E-2,-2.8676933E-2,3.9737294E0,2.2081115E0,-2.8676933E-2,1.3556894E0,2.2081115E0,2.8412336E-1,2.8412336E-1,7.066919E0,-5.993867E-1,-8.079437E-2,3.9737294E0,3.9737294E0,-2.997595E-1,9.7566575E-2,-2.8676933E-2,-1.6448165E0,-2.8676933E-2,-8.079437E-2,9.7566575E-2,-2.997595E-1,1.3556894E0,-2.8676933E-2,-1.2448335E0,2.3232186E0,1.3556894E0,-2.8676933E-2,2.718049E-1,-2.8676933E-2,-2.8676933E-2,-7.73625E-1,3.9915931E0,-4.2514837E-1,2.1173408E0,-4.605994E-1,-1.0269725E0,-2.997595E-1,6.619972E-1,-4.605994E-1,7.066919E0,-3.4655123E0,-3.4655123E0,7.066919E0,-2.997595E-1,1.3556894E0,1.3556894E0,-8.079437E-2,9.7566575E-2,9.7566575E-2,-8.079437E-2,-5.993867E-1,-8.079437E-2,2.8412336E-1,4.3856052E-1,-8.079437E-2,-2.8676933E-2,-2.997595E-1,-2.997595E-1,-2.8676933E-2,-2.8676933E-2,1.2071313E0,-8.079437E-2,-2.3828003E0,2.3771894E0,1.2074504E0,1.267722E0,1.9297688E0,2.9265862E0,1.1313808E-1,3.5632667E-1,4.460432E-1,-8.9995676E-1,-8.637318E-1,1.3249147E0,8.9516133E-1,3.248577E-1,1.2456048E0,-5.115416E-1,-2.8676933E-2,2.2556338E0,5.1061846E-2,4.3215767E-1,-1.2448335E0,-1.3317901E0,9.7566575E-2,-1.29634E0,2.718049E-1,9.7566575E-2,-8.079437E-2,-8.079437E-2,-2.997595E-1,-8.079437E-2,9.7566575E-2,9.7566575E-2,8.608401E-1,8.608401E-1,2.3566422E0,-8.079437E-2,-2.997595E-1,-2.997595E-1,1.5319724E-1,1.1067497E0,6.5914005E-1,1.3556894E0,1.3249147E0,5.158694E-1,1.6239636E0,4.460432E-1,1.2047994E0,-2.374615E0,9.7566575E-2,1.4632664E0,8.63198E-1,-1.941425E0,9.7566575E-2,9.0470386E-1,1.2940761E0,1.6274716E-1,8.608401E-1,-2.997595E-1,-2.997595E-1,-8.528223E-2,-9.478633E-1,-2.997595E-1,8.355234E-1,3.5423274E0,-4.976989E-1,5.596533E-1,2.8043723E-1,1.6657114E0,1.267722E0,2.4720168E-1,3.228401E-1,7.857855E-4,3.5744452E-1,-4.605994E-1,2.805403E-1,2.2081115E0,3.6203516E-1,1.2071984E0,1.7440982E0,1.267722E0,6.6299933E-1,-4.9792358E-1,9.7566575E-2,-3.4655123E0,6.5083206E-1,1.3613176E-1,-7.6671734E-2,-1.29634E0,-5.5625726E-2,1.2073888E0,1.246905E0,2.718049E-1,4.4249362E-1,1.4411398E0,1.1598809E0,3.22982E0,-2.0842538E0,-4.8408437E0,1.4411398E0,7.066919E0,8.608401E-1,6.6299933E-1,-2.997595E-1,-2.997595E-1,-8.079437E-2,1.9229725E-1,1.4411398E0,8.608401E-1,1.1156204E-1,-1.1252021E-1,7.066919E0,-3.6708086E0,-8.079437E-2,1.4411398E0,7.066919E0,1.4411398E0,1.4411398E0,7.066919E0,-2.997595E-1,-2.997595E-1,9.7566575E-2,9.7566575E-2,9.7566575E-2,8.608401E-1,1.1067497E0,4.4775817E-1,2.8412336E-1,5.114893E-2,-9.478633E-1,2.5933915E-1,7.857855E-4,-5.9024394E-1,1.9701352E0,5.158694E-1,-2.374615E0,6.826218E-1,1.2796346E0,2.565391E0,2.591702E0,7.279599E-1,8.7795985E-1,1.2074693E0,1.1706132E0,2.8294473E0,2.4233723E-1,1.4411398E0,7.91903E-1,1.1429964E0,7.857855E-4,1.3992214E0,-4.864444E-1,8.352164E-1,-5.115416E-1,1.4411398E0,2.42843E-1,8.608401E-1,1.108041E0,1.1122066E-1,-1.1221017E0,1.6657114E0,-1.3317901E0,1.4535187E0,6.594827E-1,1.6932354E0,9.462044E-1,2.322898E0,-4.8820755E-1,2.912359E-1,2.3161983E0,4.842848E-1,-7.2215515E-1,7.857855E-4,-8.528223E-2,-1.29634E0,7.888322E-1,3.25129E-1,4.4249362E-1,4.371205E-1,1.0543448E0,1.1530268E0,1.267722E0,1.1156204E-1,-9.317656E-3,-1.2863574E0,-2.3828003E0,1.0373178E0,9.862677E-1,4.4617084E-1,2.718049E-1,1.3172348E0,1.8981431E-1,1.8695627E0,7.7047676E-1,6.704521E-2,1.2516993E0,-4.9065182E-1,-4.8408437E0,-3.1606948E0,-4.100952E-1,1.5213042E0,-4.2514837E-1,-2.997595E-1,2.7761623E-1,9.484621E-1,9.687252E-2,-1.29634E0,1.2797183E-1,-7.4511364E-2,2.4317022E-1,-7.720408E-2,7.09468E-1,6.59105E-1,8.608401E-1,4.3686602E-1,1.1359405E-1,7.066919E0,1.0130929E0,-7.874427E-1,8.608401E-1,1.0283824E0,8.608401E-1,4.3617716E-1,-1.7652472E0,1.4411398E0,4.971147E-1,1.4411398E0,4.4249362E-1,4.4249362E-1,7.066919E0,1.4411398E0,1.9229725E-1,-2.0842538E0,-7.3619187E-1,1.6941118E0,8.608401E-1,1.2842625E0,7.066919E0,1.4411398E0,5.048814E-1,-7.874427E-1,1.503123E-1,1.6657114E0,-1.1252021E-1,2.5810502E0,5.0666994E-1,-8.800593E-1,4.4249362E-1,7.066919E0,-4.8408437E0,6.6299933E-1,-1.1252021E-1,2.6141224E0,-8.079437E-2,1.2327527E0,8.608401E-1,3.8694222E0,-8.797495E-2,3.0506077E0,-1.362271E0,8.608401E-1,-1.1252021E-1,4.4249362E-1,6.6299933E-1,1.8373322E0,8.608401E-1,1.4411398E0,-3.067916E0,1.2980939E0,-1.1252021E-1,1.4411398E0,-2.374615E0,4.059932E-1,-4.605994E-1,5.261344E-1,4.5186302E-1,-1.7652472E0,1.3249147E0,2.4757165E-1,7.7756864E-1,-2.997595E-1,9.7566575E-2,1.5213042E0,-4.976989E-1,4.460432E-1,8.158694E-1,3.1511319E0,3.4686992E0,1.9632665E0,1.4282725E0,3.291641E0,1.860977E0,1.464759E0,9.19704E-1,2.2266884E-1,1.3481004E0,1.1622164E0,1.3886106E0,1.0548966E0,1.8064226E0,5.2491647E-1,1.5833045E0,1.0871229E0,1.7509018E0,6.651788E-1,1.8314258E0,2.795402E0,5.903826E-1,2.6648936E0,1.9332081E0,2.3573828E0,1.6176313E0,1.3207879E0,2.0576017E0,2.690867E0,4.0217087E-1,3.9808273E-2,1.7759343E0,3.3256188E-1,8.590033E-1,2.2266884E-1,2.25548E0,3.7894136E-1,1.857664E0,9.300221E-1,4.842848E-1,3.9042156E0,1.2069474E0,3.057974E0,2.559209E-1,-9.718842E-1,-3.4617767E-1,-1.8577204E0,-1.6130723E-1,7.656306E-1,-1.1219301E0,-4.5133644E-1,-7.729634E-1,-5.1175565E-1,3.972222E-1,-5.7513785E-1,-1.054901E0,-1.07572414E-1,-1.6916202E0,-9.439859E-1,2.8623602E-1,9.642603E-1,1.3174188E0,-5.7472233E-3,-3.449232E-1,1.1140035E0,-5.2956444E-1,3.3403817E-1,1.0485445E0,7.58581E-2,5.4569775E-1,-1.921153E-1,7.8858346E-1,-2.585703E-1,7.982568E-1,1.4196808E0,7.9840624E-1,4.9003888E-2,1.4117448E0,6.8820703E-1,3.8235027E-1,6.533852E-2,-1.1138413E0,6.704521E-2,2.3966332E-1,-1.6192818E-2,-1.6546149E0,1.1217154E0,7.807564E-1,1.8469225E0,9.288693E-1,1.610427E0,1.3428891E0,1.1320759E0,1.070155E0,1.2761623E-1,1.7837421E0,3.052237E0,2.1028345E0,1.380504E0,9.2583245E-1,2.3490298E0,9.437428E-2,8.443743E-1,1.0447562E0,1.5938629E0,1.0975553E0,2.3498134E-1,9.3042374E-1,1.6018895E0,1.7628345E0,2.4340343E0,-2.8564882E-1,-7.4553823E-1,-4.7781873E-2,6.638894E-1,7.205534E-1,-2.6447675E-1,1.4425833E0,2.767875E0,1.7057093E0,-4.2211723E-1,2.1655667E0,2.823954E0,-8.38356E-2,6.361641E-1,5.1236117E-1,3.0180357E0,7.0021677E-1,-5.768047E-1,1.1315156E0,1.2869391E-1,2.252276E0,1.3207209E0,3.6911254E0,1.1380959E0,-1.8307726E-1,-9.6311647E-1,-1.7087257E0,-3.8242152E-1,-4.5713213E-1,-7.9815274E-1,-8.287442E-1,-1.5984108E0,-4.269527E-1,-1.2882632E-1,-1.2472426E0,-7.434833E-1,1.4834353E0,2.3196292E0,-3.1505632E-1,6.180431E-1,-1.1292683E-1,-2.9415894E-1,4.286671E-3,1.9588927E0,-3.9580953E-1,-8.102201E-2,-2.5958297E-1,-9.893805E-1,4.0844208E-1,-2.8498507E-1,6.8277127E-1,-2.8921294E-1,1.9235169E0,2.9807901E0,4.846467E-1,1.8774209E0,5.914389E-1,-5.6518044E-2,-1.3974363E-1,5.870251E-2,3.0263638E-1,2.9716903E-2,5.93749E-1,9.984688E-1,1.6250516E-1,1.4826971E0,1.6244946E-1,7.865768E-1,2.4744673E0,2.0519624E0,-1.232491E0,-6.622268E-1,-3.5301623E-1,3.1434107E0,1.2624261E0,-1.9944872E0,-4.077016E-1,-9.946683E-1,6.2944424E-1,3.0542463E-1,-1.0017633E0,-5.376434E-1,3.3258405E-1,7.7359205E-1,-1.5624144E0,-2.544465E-1,-1.9690374E0,3.176776E-1,-1.541209E0,-4.128051E-2,-2.652426E-1,-1.2451684E0,9.095887E-1,1.837091E-1,-8.373945E-1,-5.07549E-1,-1.6013628E0,-1.8526608E0,-1.377079E0,-5.118416E-1,7.5738914E-3,-1.1977031E0,2.4539666E-2,8.101907E-1,-1.9409372E0,6.531056E-1,1.4792976E0,4.8996225E-1,2.7169228E-1,-1.3876721E-1,-1.5703808E0,-5.934457E-2,5.710436E-1,2.6322145E0,7.2532415E-1,1.5407687E0,2.605082E0,1.4131218E0,2.46925E0,3.4665964E0,3.7358093E-1,2.1394246E0,3.0090232E0,1.1400547E0,1.2386833E0,1.4267197E-1,1.5900412E0,1.1482085E0,1.7083266E0,2.842912E0,2.0516644E0,1.4195101E0,1.3843521E0,9.794884E-2,1.495433E0,2.1680987E0],"split_indices":[1,7,11,12,28,8,11,11,8,7,11,7,7,12,0,28,11,11,6,0,8,0,8,28,0,6,7,8,15,0,7,8,0,8,8,0,0,0,0,9,1,6,3,9,12,1,1,12,6,7,7,28,0,0,28,0,28,7,3,28,8,6,6,8,8,2,28,4,0,2,14,0,0,3,3,0,15,2,9,0,0,0,19,8,0,2,9,15,1,0,0,0,0,28,28,6,28,0,0,6,6,8,28,6,6,3,1,3,7,9,0,2,0,2,4,0,0,0,1,0,0,4,4,6,6,6,28,0,6,0,0,2,0,5,0,14,3,3,27,3,9,6,11,0,2,15,14,13,2,0,1,0,0,0,0,0,2,27,0,11,6,0,0,2,2,6,12,6,13,6,6,28,1,6,6,3,1,12,2,28,6,12,6,6,12,6,6,0,0,0,6,1,5,7,2,0,0,27,4,0,0,4,0,0,0,0,0,0,2,0,0,3,6,3,0,27,15,2,5,19,6,3,6,0,5,0,0,1,0,3,2,0,0,14,5,0,0,1,27,28,0,14,3,11,3,15,2,14,3,14,14,4,0,0,0,0,0,2,16,0,0,10,2,2,1,10,19,0,6,0,14,5,0,3,28,3,28,15,3,6,3,5,12,19,7,6,2,6,3,14,6,1,6,11,11,12,6,1,2,2,2,6,15,12,6,19,7,14,0,1,0,3,6,11,12,2,13,1,0,28,4,6,28,28,0,0,6,1,11,13,4,6,6,3,4,1,6,4,0,9,5,5,14,9,3,0,6,0,19,2,0,0,0,0,0,0,0,0,0,0,0,0,0,0,0,0,0,0,0,0,0,0,0,0,0,0,0,0,0,0,0,0,0,0,0,0,0,0,0,0,0,0,0,0,0,0,0,0,0,0,0,0,0,0,0,0,0,0,0,0,0,0,0,0,0,0,0,0,0,0,0,0,0,0,0,0,0,0,0,0,0,0,0,0,0,0,0,0,0,0,0,0,0,0,0,0,0,0,0,0,0,0,0,0,0,0,0,0,0,0,0,0,0,0,0,0,0,0,0,0,0,0,0,0,0,0,0,0,0,0,0,0,0,0,0,0,0,0,0,0,0,0,0,0,0,0,0,0,0,0,0,0,0,0,0,0,0,0,0,0,0,0,0,0,0,0,0,0,0,0,0,0,0,0,0,0,0,0,0,0,0,0,0,0,0,0,0,0,0,0,0,0,0,0,0,0,0,0,0,0,0,0,0,0,0,0,0,0,0,0,0,0,0,0,0,0,0,0,0,0,0,0,0,0,0,0,0,0,0,0,0,0,0,0,0,0,0,0,0,0,0,0,0,0,0,0,0,0,0],"split_type":[0,0,0,0,0,0,0,0,0,0,0,0,0,0,0,0,0,0,0,0,0,0,0,0,0,0,0,0,0,0,0,0,0,0,0,0,0,0,0,0,0,0,0,0,0,0,0,0,0,0,0,0,0,0,0,0,0,0,0,0,0,0,0,0,0,0,0,0,0,0,0,0,0,0,0,0,0,0,0,0,0,0,0,0,0,0,0,0,0,0,0,0,0,0,0,0,0,0,0,0,0,0,0,0,0,0,0,0,0,0,0,0,0,0,0,0,0,0,0,0,0,0,0,0,0,0,0,0,0,0,0,0,0,0,0,0,0,0,0,0,0,0,0,0,0,0,0,0,0,0,0,0,0,0,0,0,0,0,0,0,0,0,0,0,0,0,0,0,0,0,0,0,0,0,0,0,0,0,0,0,0,0,0,0,0,0,0,0,0,0,0,0,0,0,0,0,0,0,0,0,0,0,0,0,0,0,0,0,0,0,0,0,0,0,0,0,0,0,0,0,0,0,0,0,0,0,0,0,0,0,0,0,0,0,0,0,0,0,0,0,0,0,0,0,0,0,0,0,0,0,0,0,0,0,0,0,0,0,0,0,0,0,0,0,0,0,0,0,0,0,0,0,0,0,0,0,0,0,0,0,0,0,0,0,0,0,0,0,0,0,0,0,0,0,0,0,0,0,0,0,0,0,0,0,0,0,0,0,0,0,0,0,0,0,0,0,0,0,0,0,0,0,0,0,0,0,0,0,0,0,0,0,0,0,0,0,0,0,0,0,0,0,0,0,0,0,0,0,0,0,0,0,0,0,0,0,0,0,0,0,0,0,0,0,0,0,0,0,0,0,0,0,0,0,0,0,0,0,0,0,0,0,0,0,0,0,0,0,0,0,0,0,0,0,0,0,0,0,0,0,0,0,0,0,0,0,0,0,0,0,0,0,0,0,0,0,0,0,0,0,0,0,0,0,0,0,0,0,0,0,0,0,0,0,0,0,0,0,0,0,0,0,0,0,0,0,0,0,0,0,0,0,0,0,0,0,0,0,0,0,0,0,0,0,0,0,0,0,0,0,0,0,0,0,0,0,0,0,0,0,0,0,0,0,0,0,0,0,0,0,0,0,0,0,0,0,0,0,0,0,0,0,0,0,0,0,0,0,0,0,0,0,0,0,0,0,0,0,0,0,0,0,0,0,0,0,0,0,0,0,0,0,0,0,0,0,0,0,0,0,0,0,0,0,0,0,0,0,0,0,0,0,0,0,0,0,0,0,0,0,0,0,0,0,0,0,0,0,0,0,0,0,0,0,0,0,0,0,0,0,0,0,0,0,0,0,0,0,0,0,0,0,0,0,0,0,0,0,0],"sum_hessian":[3.6474E4,6.439E3,3.0035E4,3.378E3,3.061E3,2.9028E4,1.007E3,3.168E3,2.1E2,1.428E3,1.633E3,8.4E3,2.0628E4,8.28E2,1.79E2,2.652E3,5.16E2,1.1E2,1E2,1.131E3,2.97E2,1.377E3,2.56E2,3.221E3,5.179E3,7.558E3,1.307E4,7.28E2,1E2,1.6E1,1.63E2,1.039E3,1.613E3,4.38E2,7.8E1,9.5E1,1.5E1,6E1,4E1,5.52E2,5.79E2,1.42E2,1.55E2,1.5E1,1.362E3,8.9E1,1.67E2,1.776E3,1.445E3,2.955E3,2.224E3,2.102E3,5.456E3,8.14E3,4.93E3,4.39E2,2.89E2,8E0,9.2E1,1.36E2,2.7E1,4.68E2,5.71E2,5.82E2,1.031E3,1.56E2,2.82E2,5.8E1,2E1,1.4E1,8.1E1,1.4E1,4.6E1,1.36E2,4.16E2,3.49E2,2.3E2,3.9E1,1.03E2,1.53E2,2E0,2E0,1.3E1,1.32E3,4.2E1,3E0,8.6E1,2.8E1,1.39E2,1.746E3,3E1,5.73E2,8.72E2,1.617E3,1.338E3,1.257E3,9.67E2,1.382E3,7.2E2,3.287E3,2.169E3,4.359E3,3.781E3,2.554E3,2.376E3,8.4E1,3.55E2,4.9E1,2.4E2,7E0,1E0,8.2E1,1E1,1.8E1,1.18E2,2.2E1,5E0,7.8E1,3.9E2,3.38E2,2.33E2,1.88E2,3.94E2,2.04E2,8.27E2,1.49E2,7E0,5.5E1,2.27E2,1E0,5.7E1,1.3E1,1E0,6.7E1,1.4E1,1.7E1,1.19E2,3.4E2,7.6E1,7.1E1,2.78E2,6.7E1,1.63E2,3E0,3.6E1,8E1,2.3E1,3E0,1E1,3.76E2,9.44E2,2E0,1E0,3.9E1,4.7E1,1E0,2.7E1,6.7E1,7.2E1,9.43E2,8.03E2,2E0,2.8E1,3.37E2,2.36E2,5.88E2,2.84E2,7.63E2,8.54E2,6.9E2,6.48E2,5.44E2,7.13E2,5.27E2,4.4E2,7.97E2,5.85E2,4.18E2,3.02E2,1.623E3,1.664E3,9.68E2,1.201E3,4.051E3,3.08E2,2.48E3,1.301E3,9.25E2,1.629E3,6.46E2,1.73E3,2E1,6.4E1,3.15E2,4E1,4.8E1,1E0,1.8E2,6E1,6E0,1E0,8.1E1,1E0,6E0,4E0,1.7E1,1E0,1E0,1.17E2,2E0,2E1,3.3E1,3.57E2,1.11E2,2.27E2,1.67E2,2.1E1,1.78E2,2.16E2,1.1E2,9.4E1,2.15E2,6.12E2,5E0,1.44E2,3E0,4E0,4E0,5.1E1,1.15E2,1.12E2,2E0,1.1E1,2.7E1,4E1,1.3E1,1E0,7E0,1E1,3.8E1,8.1E1,3.04E2,3.6E1,2.8E1,4.8E1,6E1,1.1E1,7.5E1,2.03E2,2.1E1,4.6E1,1.61E2,2E0,3.2E1,4E0,7.5E1,5E0,1.8E1,5E0,2E0,1E0,7E0,3E0,8.1E1,2.95E2,1.13E2,8.31E2,3E0,3.6E1,1E0,4.6E1,2.5E1,2E0,5E1,1.7E1,2.4E1,4.8E1,2.71E2,6.72E2,7.11E2,9.2E1,6E0,3.31E2,4E0,2.32E2,4.43E2,1.45E2,2.62E2,2.2E1,5.06E2,2.57E2,6.36E2,2.18E2,2.21E2,4.69E2,2.25E2,4.23E2,4.23E2,1.21E2,2.4E2,4.73E2,4.36E2,9.1E1,2.91E2,1.49E2,8.3E1,7.14E2,4.2E1,5.43E2,4.03E2,1.5E1,4E0,2.98E2,7.88E2,8.35E2,8.05E2,8.59E2,9.66E2,2E0,7.68E2,4.33E2,3.317E3,7.34E2,3.01E2,7E0,8.49E2,1.631E3,2.44E2,1.057E3,4.59E2,4.66E2,9.25E2,7.04E2,4.05E2,2.41E2,8.17E2,9.13E2,1.9E1,1E0,4.8E1,1.6E1,2.11E2,1.04E2,2.2E1,1.8E1,5E0,4.3E1,4.8E1,1.32E2,2.2E1,3.8E1,1E0,8E1,1.12E2,5E0,8E0,2.5E1,2.65E2,9.2E1,1.1E2,1E0,1.32E2,9.5E1,5.3E1,1.14E2,1.8E1,3E0,1.14E2,6.4E1,2.11E2,5E0,2.3E1,8.7E1,3.2E1,6.2E1,7E1,1.45E2,3.61E2,2.51E2,3.7E1,1.07E2,1E0,2E0,3E0,1E0,3E0,1E0,1.13E2,2E0,1.08E2,4E0,1E0,2.6E1,3E0,3.7E1,5E0,2E0,2E0,8E0,2.7E1,1.1E1,1.3E1,6.8E1,1.82E2,1.22E2,1.2E1,2.4E1,1.2E1,1.6E1,1.7E1,3.1E1,4.7E1,1.3E1,1E1,1E0,6.9E1,6E0,2E1,1.83E2,1.1E1,1E1,6E0,4E1,2E0,1.59E2,7E0,6.8E1,4E0,1E0,9E0,9E0,3E0,2E0,6E0,1E0,2E0,1E0,2E0,7.9E1,3.1E1,2.64E2,1.4E1,9.9E1,7.13E2,1.18E2,2E0,1E0,1.2E1,2.4E1,3.1E1,1.5E1,2E0,2.3E1,1E0,1E0,1E1,4E1,1.2E1,5E0,1E1,1.4E1,3.3E1,1.5E1,2.06E2,6.5E1,6.2E2,5.2E1,4.86E2,2.25E2,8.5E1,7E0,1E0,5E0,2.92E2,3.9E1,2E0,2E0,1E0,2.31E2,2.84E2,1.59E2,1.19E2,2.6E1,9.8E1,1.64E2,2E1,2E0,9E0,4.97E2,2.15E2,4.2E1,3.38E2,2.98E2,1.82E2,3.6E1,5.9E1,1.62E2,1.79E2,2.9E2,2.1E2,1.5E1,3.1E2,1.13E2,1.16E2,3.07E2,3E0,1.18E2,4.3E1,1.97E2,4.68E2,5E0,3.25E2,1.11E2,8.4E1,7E0,2.67E2,2.4E1,8.2E1,6.7E1,4.3E1,4E1,3.43E2,3.71E2,2.4E1,1.8E1,5.01E2,4.2E1,5E0,3.98E2,3E0,1E0,1.5E2,1.48E2,3.24E2,4.64E2,8.34E2,1E0,1E0,8.04E2,6.2E2,2.39E2,1.04E2,8.62E2,4.21E2,3.47E2,3.82E2,5.1E1,2.806E3,5.11E2,7.21E2,1.3E1,2.8E1,2.73E2,8.13E2,8.18E2,4.3E1,2.01E2,3.54E2,7.03E2,2.65E2,1.94E2,4.64E2,2E0,4.57E2,4.68E2,5.18E2,1.86E2,4E0,4.01E2,2.17E2,2.4E1,1.02E2,7.15E2,4.95E2,4.18E2,1E0,1.8E1,9E0,3.9E1,9E0,7E0,1.91E2,2E1,1E0,1.03E2,1.2E1,1E1,1.6E1,2E0,2.5E1,1.8E1,2E1,2.8E1,1.16E2,1.6E1,2E1,2E0,1.9E1,1.9E1],"tree_param":{"num_deleted":"0","num_feature":"29","num_nodes":"599","size_leaf_vector":"1"}},{"base_weights":[1.3993874E-2,3.0587142E0,-6.3882315E-1,4.125487E0,1.8805025E0,-8.575542E-1,5.66096E0,3.941582E0,6.867994E0,1.0927604E-2,3.5143714E0,5.308496E-1,-1.4229293E0,5.2725487E0,7.4183617E0,3.6563516E0,5.397627E0,7.6677766E0,5.921025E0,-6.250106E-1,2.4266026E0,3.3331432E0,4.472419E0,3.4965605E-1,7.7373123E0,-2.4373288E0,-8.511164E-1,5.033012E0,6.9492807E0,7.737932E0,6.1462092E0,3.16065E0,3.9734972E0,4.975038E0,7.677612E0,7.2720013E0,2.8689578E0,6.448315E0,4.992105E0,-1.4981E0,2.0851251E-1,2.7830222E0,2.0843296E0,3.3691635E0,-7.0816773E-1,4.3285537E0,7.04896E0,1.6357967E0,-4.2054123E-1,7.1417336E0,8.919388E0,-1.9165612E0,-3.7414136E0,-2.7673498E-2,-1.379313E0,4.1052046E0,5.242711E0,5.435347E0,7.604052E0,5.9564447E0,8.019595E0,1.9170465E0,1.0974504E0,3.9885087E0,2.4763381E0,4.215732E0,3.3491032E0,5.762684E0,4.520496E0,8.265625E0,5.6599746E0,1.5621008E0,7.561062E0,1.3894339E0,2.0672908E0,1.5162736E0,3.7597504E-1,-1.9368969E0,-1.2400547E0,1.1899045E0,4.4528496E-2,3.4674673E0,2.5114E0,9.833023E-1,2.106835E0,3.3034039E0,1.5946807E0,-2.8953948E0,2.326163E0,4.4867435E0,3.4774065E0,8.585255E-1,2.280068E0,4.4922814E-1,3.2002223E0,-1.3499838E0,8.2654685E-1,6.588513E0,2.408367E0,1.2330081E1,8.15106E0,-8.9135426E-1,-2.4271798E0,-4.37271E0,-2.4029849E0,1.9971616E0,-9.161081E-1,-1.9516968E0,-5.445513E-1,4.4162636E0,2.1470501E0,4.4637656E0,5.7890363E0,5.6934643E0,6.228304E-1,8.468444E0,6.226875E0,1.1425128E0,6.84819E0,8.455978E0,6.3887653E0,3.212192E0,5.262648E0,2.7185614E0,2.1148424E0,3.4543111E0,4.5973964E0,4.3457034E-1,4.497544E0,5.5057945E0,8.988373E0,3.3562841E0,4.7866163E0,8.0556566E-1,8.414319E0,1.0267646E0,1.8980325E0,7.9306483E0,5.381532E0,-2.03793E0,1.1831616E0,-8.899338E-1,-1.6572452E0,3.1624413E0,3.3391595E-1,-5.113889E-1,3.2151875E-1,3.554119E0,3.9203167E-2,5.835533E-1,2.5618854E0,1.6405378E-1,4.093692E-1,1.6199628E0,2.1854675E0,2.871881E0,3.5156684E0,-1.5044186E0,-6.2084883E-1,1.5955812E-1,9.271048E-1,3.5217962E0,4.7531815E0,4.381169E0,1.9787824E0,-2.5458887E-1,1.2750416E0,5.618434E0,1.827263E0,-2.135631E0,-3.8800085E-1,-1.09103546E-1,2.0662506E0,7.1896405E0,5.33392E0,4.2007275E0,1.8962878E0,4.2479663E0,8.450423E0,1.5346761E0,-1.7054615E0,-3.0146892E0,-1.4113879E0,-3.8934865E0,-5.1320944E0,-7.695272E-1,-2.8900006E0,7.1337634E-1,4.344097E0,-1.7305645E0,1.1852209E-1,-3.1491315E0,-1.5525641E0,-8.7728363E-1,9.3812406E-1,5.00203E0,3.3418474E0,2.4821515E0,5.7829475E-1,3.4295266E0,4.8755937E0,6.2211585E0,5.029841E0,5.8403134E0,1.9319974E-1,9.152946E0,5.1697726E0,8.313461E-1,6.5082088E0,1.0344261E0,2.2232628E0,6.998764E0,9.001192E0,4.522728E-1,6.694499E0,6.075167E-1,3.631505E0,7.2251043E0,3.4335198E0,2.1462927E0,2.9877524E0,2.1590586E0,1.5635525E0,3.0617726E0,4.0781293E0,6.012173E0,4.331719E0,1.4074608E0,-2.7521315E-1,3.301348E0,4.897458E0,6.501153E0,4.6022124E0,3.080049E0,1.3511939E0,3.5928826E0,7.6207E-1,5.536378E0,4.479599E0,4.9043007E0,8.7311E0,9.02193E0,6.991953E0,1.6709722E0,4.1164228E-1,-1.4011279E0,-2.5714004E0,-3.7353277E-1,7.332197E-1,-2.1140741E-1,-1.1657445E0,2.6378727E0,-1.7851055E0,7.506679E-1,3.5860806E0,-1.8057485E0,1.2429645E0,-8.8546973E-1,2.8194065E0,1.7418158E-1,2.5022335E0,3.6482394E0,3.8140258E-1,3.7405016E-3,2.3092768E-1,2.3189492E0,3.2649267E0,1.1886208E0,7.163961E-1,6.598595E-1,2.5988618E-1,3.4640305E0,2.510095E0,2.69006E0,3.9445024E0,9.294381E-1,-1.0232996E0,1.2710297E0,3.6975243E0,4.5838566E0,6.05053E0,2.6469738E0,5.476447E0,-2.3725383E-1,2.2706153E0,6.6408426E-2,-1.1129217E0,-1.2078818E-1,2.3297968E0,4.889794E0,6.6104374E0,8.793465E-1,3.9251945E0,-2.6521184E0,-1.6710738E0,-1.64976E0,9.9216306E-1,4.5045868E-1,-5.290142E-1,6.945964E-1,3.8064122E0,8.227479E0,6.091182E0,6.57134E0,4.4564004E0,1.5250928E0,1.04375845E-2,8.755069E0,3.8966737E0,2.6515388E-1,4.159445E0,-2.3629675E0,-5.0433284E-1,-3.6141627E0,-2.2887151E0,1.1369506E0,-2.1330726E0,-2.2893124E0,-4.491813E0,-5.676961E0,-4.62736E0,1.2062432E0,-2.6626205E0,-2.0687745E0,-3.533194E0,1.7054431E-1,1.3873559E0,3.6734176E0,5.1991386E0,-1.106909E0,-2.3506362E0,8.363594E-1,-4.989574E-1,-2.1704338E0,-3.7321231E0,-2.0250983E0,-8.202924E-1,-1.8223004E-1,-3.65326E0,1.9482111E0,-5.8390953E-2,5.7349553E0,2.9756665E0,3.0955281E0,2.1269841E0,1.3287686E0,3.35974E0,-7.996044E-2,2.5684077E-1,2.9369566E0,4.7008104E0,2.2967708E0,4.6787343E0,6.590572E0,4.6791396E0,3.815913E0,5.420025E0,8.872353E-1,6.1700826E0,2.8910995E0,1.6589701E0,1.6665977E0,7.6389933E0,8.8853794E-1,6.8281026E0,7.1407332E0,4.5354253E-1,6.392046E-1,2.723668E0,3.7947693E-1,6.854678E0,6.015562E-1,1.2523875E0,2.208E0,8.061605E-1,8.4091586E-1,1.5108808E0,7.635841E-1,5.9489876E-1,1.03462E0,8.360486E-1,6.5518975E-1,4.2976716E-1,5.414241E-1,1.9793253E-1,8.066258E-1,1.1798435E0,1.0933607E0,1.5589554E0,1.968743E0,1.1682038E0,1.5884484E0,1.1280513E0,6.1730003E-1,2.0157956E-2,-2.0679666E-1,2.952974E-3,6.1074525E-1,1.1384166E0,1.8781154E0,1.3188034E0,2.0519524E0,7.717826E-1,9.1728324E-1,1.5175544E0,1.153739E0,6.79897E-1,1.1560037E0,2.0173867E0,7.353952E-1,1.4124525E0,1.8404661E0,3.6556703E-1,1.4669585E0,2.7126973E0,1.0860412E0,2.857602E0,2.202275E0,5.786428E-1,-5.5994385E-1,2.285058E-1,-8.47378E-1,-1.0580187E-1,1.7691278E-1,-2.6735497E-1,-6.0109335E-1,2.917166E-1,1.9820055E-2,-4.8163807E-1,-3.0371E-1,1.6226465E0,-6.0363555E-1,5.2819636E-2,-4.0400878E-1,4.835049E-1,4.869118E-1,1.1857499E0,3.501501E-1,-1.1411129E0,-3.678522E-1,5.580007E-1,-1.8831865E-1,-1.2255936E0,1.4044396E0,4.1822076E-2,7.371157E-2,-1.0579183E0,1.1807673E0,-2.7820522E-1,1.1910977E0,7.3379743E-1,8.1205744E-1,5.766652E-1,1.084592E0,1.827603E-1,4.8749003E-1,2.505102E-1,4.7701222E-1,1.1178836E0,5.4447585E-1,8.390048E-1,8.4382623E-1,3.190296E-1,1.4670899E0,1.0798187E0,7.142773E-2,4.505213E-1,8.569908E-3,9.361325E-1,4.8462573E-1,1.1596048E0,1.3926011E0,4.2082587E-1,8.449558E-1,2.091146E0,9.0590364E-1,1.5669023E-1,1.8095552E0,3.732651E-1,-3.533821E-1,2.466179E-1,7.7291447E-1,2.605057E-2,-1.9629404E-1,7.64695E-1,-3.732905E-1,1.1270939E0,9.886749E-2,-1.6506474E-1,1.832815E0,1.9398484E-1,1.030112E0,1.5839076E0,2.6511773E-1,2.0168402E0,2.381665E-1,2.3430398E0,9.491982E-1,1.934357E0,-6.6541994E-1,-1.0484403E0,-3.1708536E-1,-5.9798187E-1,-1.4773802E-1,-6.5786684E-1,7.543317E-1,-4.0317968E-1,-1.7167808E-1,1.2851794E0,-1.6706157E-1,2.1632345E-1,-2.2832663E-1,2.4658874E-1,1.4360399E0,8.216406E-1,1.827833E0,2.9014106E0,2.1628354E0,1.3843827E0,2.1984499E0,5.574425E-1,1.4298608E0,5.3798676E-1,2.653993E0,6.814007E-1,1.2834395E0,3.556263E-1,-8.032623E-2,4.8016116E-1,4.545761E-1,1.4254893E0,-4.6221158E-1,-9.5680016E-1,2.356042E-1,-4.3135738E-1,-1.1813785E0,-8.3986676E-1,-8.1779706E-1,-4.0382523E-2,-1.118161E0,3.921654E-1,-8.308184E-1,-3.5153055E-1,4.9877524E-1,-8.435133E-1,-1.5663946E0,-8.191435E-1,-1.8720495E0,-1.4843193E0,-7.697699E-1,-1.4886249E0,2.1494627E-1,1.2372494E0,-1.0195512E0,-1.9774629E-1,-7.835077E-1,-2.8047583E-1,-1.1916434E0,-6.8170255E-1,4.1652343E-1,1.5661025E-2,1.8440455E-1,4.5586142E-1,1.2697597E0,9.161252E-1,1.4627441E0,2.1505773E0,-2.3049669E-1,-6.166133E-1,-1.2876555E0,-2.761649E-1,2.4299002E-1,2.091298E0,-4.5671785E-1,3.2135576E-1,-1.3455942E0,1.7524002E-1,-1.3667493E0,-8.4577876E-1,-9.9546105E-1,-4.370228E-1,3.070706E-1,-4.2710742E-1,-3.8742262E-1,2.620433E-1,-2.000433E0,-3.6446044E-1,3.6634824E-1,6.6978467E-1,-2.2260855E-1,2.9280683E-1,4.073586E-1,1.8461658E0,1.2936102E-1,1.2403009E0,1.0602667E0,6.320772E-1,5.0594956E-1,-2.2996046E-1,1.1812667E0,2.6747704E-1,9.6686345E-1,1.4252882E-1,5.120619E-1,1.6156207E0,1.4933625E-1,1.4180058E0,2.15505E0,1.4903103E0,1.5069436E0,2.767399E-1,1.6126293E0,9.207998E-1,3.7667504E-1,1.6485819E0,1.307946E0,2.1087024E0,-1.0680027E-1,6.783743E-1,6.239239E-1,2.5526605E0,2.0870383E0,5.802286E-1,1.1476921E0,2.2601542E0,2.1546721E0,9.772571E-1],"categories":[],"categories_nodes":[],"categories_segments":[],"categories_sizes":[],"default_left":[0,0,0,0,0,0,0,0,0,0,0,0,0,0,0,0,0,0,0,0,0,0,0,0,0,0,0,0,0,0,0,0,0,0,0,0,0,0,0,0,0,0,0,0,0,0,0,0,0,0,0,0,0,0,0,0,0,0,0,0,0,0,0,0,0,0,0,0,0,0,0,0,0,0,0,0,0,0,0,0,0,0,0,0,0,0,0,0,0,0,0,0,0,0,0,0,0,0,0,0,0,0,0,0,0,0,0,0,0,0,0,0,0,0,0,0,0,0,0,0,0,0,0,0,0,0,0,0,0,0,0,0,0,0,0,0,0,0,0,0,0,0,0,0,0,0,0,0,0,0,0,0,0,0,0,0,0,0,0,0,0,0,0,0,0,0,0,0,0,0,0,0,0,0,0,0,0,0,0,0,0,0,0,0,0,0,0,0,0,0,0,0,0,0,0,0,0,0,0,0,0,0,0,0,0,0,0,0,0,0,0,0,0,0,0,0,0,0,0,0,0,0,0,0,0,0,0,0,0,0,0,0,0,0,0,0,0,0,0,0,0,0,0,0,0,0,0,0,0,0,0,0,0,0,0,0,0,0,0,0,0,0,0,0,0,0,0,0,0,0,0,0,0,0,0,0,0,0,0,0,0,0,0,0,0,0,0,0,0,0,0,0,0,0,0,0,0,0,0,0,0,0,0,0,0,0,0,0,0,0,0,0,0,0,0,0,0,0,0,0,0,0,0,0,0,0,0,0,0,0,0,0,0,0,0,0,0,0,0,0,0,0,0,0,0,0,0,0,0,0,0,0,0,0,0,0,0,0,0,0,0,0,0,0,0,0,0,0,0,0,0,0,0,0,0,0,0,0,0,0,0,0,0,0,0,0,0,0,0,0,0,0,0,0,0,0,0,0,0,0,0,0,0,0,0,0,0,0,0,0,0,0,0,0,0,0,0,0,0,0,0,0,0,0,0,0,0,0,0,0,0,0,0,0,0,0,0,0,0,0,0,0,0,0,0,0,0,0,0,0,0,0,0,0,0,0,0,0,0,0,0,0,0,0,0,0,0,0,0,0,0,0,0,0,0,0,0,0,0,0,0,0,0,0,0,0,0,0,0,0,0,0,0,0,0,0,0,0,0,0,0,0,0,0,0,0,0,0,0,0,0,0,0,0,0,0,0,0,0,0,0,0,0,0,0,0,0,0,0,0,0,0,0,0,0,0,0,0,0,0,0,0,0,0,0,0,0,0,0,0,0,0,0,0,0,0,0,0,0,0,0,0,0,0,0,0,0,0,0,0,0,0,0,0,0,0,0,0,0,0,0,0,0,0,0,0,0,0,0,0,0,0,0,0,0,0,0,0,0,0,0,0,0,0,0,0,0,0,0,0,0,0,0,0,0,0,0,0,0,0,0,0,0,0,0,0,0],"id":3,"left_children":[1,3,5,7,9,11,13,15,17,19,21,23,25,27,29,31,33,35,37,39,41,43,45,47,49,51,53,55,57,59,61,63,65,67,69,71,-1,73,75,77,79,81,83,85,87,89,91,93,95,97,99,101,103,105,107,109,111,113,115,117,119,-1,-1,121,123,125,127,129,131,133,135,-1,137,-1,-1,-1,-1,139,141,143,145,147,149,151,153,155,-1,157,159,161,163,-1,-1,165,167,169,171,173,-1,175,177,179,181,183,185,187,189,191,193,195,197,199,201,203,-1,205,207,-1,209,211,213,215,217,219,221,223,225,227,229,231,233,235,237,-1,239,-1,-1,241,243,245,247,249,251,253,255,257,259,261,-1,263,265,-1,-1,267,269,271,273,-1,275,-1,-1,277,279,281,283,285,287,289,291,293,295,297,299,301,303,-1,-1,305,307,309,311,313,315,317,319,321,323,325,327,329,331,333,335,337,339,341,343,345,347,349,351,353,355,357,-1,359,361,-1,363,-1,-1,365,367,-1,369,-1,371,373,375,377,379,381,383,385,387,389,391,393,395,397,399,401,403,-1,-1,405,-1,407,409,411,413,415,417,-1,-1,419,421,423,-1,425,427,429,431,433,435,437,439,441,443,445,447,449,-1,-1,-1,451,453,455,-1,-1,-1,457,459,461,463,465,-1,467,469,471,473,475,477,479,481,483,485,487,489,491,493,495,497,499,501,503,505,507,509,511,513,515,517,519,521,-1,-1,523,525,527,529,531,533,535,537,539,541,543,545,547,549,551,553,555,557,559,561,563,565,567,569,571,573,575,577,579,581,583,585,587,589,591,593,595,-1,597,599,-1,-1,601,603,-1,605,607,609,611,613,-1,615,-1,-1,617,619,-1,621,623,-1,-1,-1,-1,625,-1,-1,-1,-1,-1,-1,-1,-1,-1,-1,-1,-1,-1,-1,-1,-1,-1,-1,-1,-1,-1,-1,-1,-1,-1,-1,-1,-1,-1,-1,-1,-1,-1,-1,-1,-1,-1,-1,-1,-1,-1,-1,-1,-1,-1,-1,-1,-1,-1,-1,-1,-1,-1,-1,-1,-1,-1,-1,-1,-1,-1,-1,-1,-1,-1,-1,-1,-1,-1,-1,-1,-1,-1,-1,-1,-1,-1,-1,-1,-1,-1,-1,-1,-1,-1,-1,-1,-1,-1,-1,-1,-1,-1,-1,-1,-1,-1,-1,-1,-1,-1,-1,-1,-1,-1,-1,-1,-1,-1,-1,-1,-1,-1,-1,-1,-1,-1,-1,-1,-1,-1,-1,-1,-1,-1,-1,-1,-1,-1,-1,-1,-1,-1,-1,-1,-1,-1,-1,-1,-1,-1,-1,-1,-1,-1,-1,-1,-1,-1,-1,-1,-1,-1,-1,-1,-1,-1,-1,-1,-1,-1,-1,-1,-1,-1,-1,-1,-1,-1,-1,-1,-1,-1,-1,-1,-1,-1,-1,-1,-1,-1,-1,-1,-1,-1,-1,-1,-1,-1,-1,-1,-1,-1,-1,-1,-1,-1,-1,-1,-1,-1,-1,-1,-1,-1,-1,-1,-1,-1,-1,-1,-1,-1,-1,-1,-1,-1,-1,-1,-1,-1,-1,-1,-1,-1,-1,-1,-1,-1,-1,-1,-1,-1,-1,-1,-1,-1,-1,-1,-1,-1,-1,-1,-1,-1,-1,-1,-1,-1,-1,-1,-1,-1,-1,-1,-1],"loss_changes":[7.250131E4,8.086582E3,4.1393207E4,1.6771602E3,9.3532705E3,2.278762E4,6.4894336E2,1.2963789E3,1.1440332E2,2.1967751E3,2.6879688E2,1.0967022E4,1.1963707E4,2.9798242E2,2.561914E1,4.0451953E2,4.5993164E2,1.3724609E1,1.7280273E1,8.2411426E2,3.05531E1,2.0298145E2,6.4751465E1,8.1194985E3,8.1328125E1,5.0428047E3,5.7385566E3,1.203125E2,5.8789062E1,2.2480469E1,1.5084229E0,5.792969E2,2.2999805E2,1.3111914E2,4.6941895E1,1.7932617E1,0E0,1.7143799E1,3.1914062E0,6.021411E1,9.3287926E1,1.7877075E1,1.7938232E0,1.5728516E2,9.3013176E1,1.7519531E1,5.9491577E0,5.6973975E3,5.943805E3,1.6722168E1,6.9831055E1,2.780709E3,1.781623E3,9.27893E3,3.8395283E3,7.518335E1,2.2566309E2,1.7660461E1,2.8216553E1,1.7976746E1,2.9953125E1,0E0,0E0,4.47E2,4.4336426E1,3.209336E2,1.5243545E3,8.0609375E1,7.161377E1,2.6362305E1,9.676514E0,0E0,2.3373535E1,0E0,0E0,0E0,0E0,6.640265E1,4.9794678E1,1.3908694E2,7.68483E1,1.0522797E1,8.821777E0,8.5814476E-2,2.2788086E0,1.11177734E2,0E0,3.545079E1,6.583454E0,3.5708496E1,4.9569824E1,0E0,0E0,1.01571875E3,4.3855537E3,2.2196504E3,2.5404702E3,3.1788818E1,0E0,1.1984619E1,2.9535645E1,3.4964785E3,2.1131445E3,5.040547E2,5.403203E2,4.7362896E3,3.021145E3,2.2739043E3,1.6145186E3,5.817749E1,9.604126E0,8.890967E1,8.156348E1,1.9225647E1,0E0,4.07417E1,1.11311035E1,0E0,3.1444092E0,8.506836E0,3.3185425E1,1.3899365E2,6.06959E2,4.581006E1,2.328125E0,8.325879E1,2.6300488E2,9.015775E1,1.4026025E2,1.0318945E2,1.10894165E1,1.6855469E0,2.7682617E1,0E0,2.0559082E1,0E0,0E0,6.5771484E0,3.6863098E0,6.3321045E1,1.4652833E1,3.5872513E1,9.202768E1,2.285109E1,1.1700296E2,2.0933032E2,1.0655716E2,3.311493E0,0E0,4.157591E-1,1.0020569E1,0E0,0E0,5.443619E0,4.6936035E-1,8.599512E1,3.0201465E2,0E0,2.4797974E1,0E0,0E0,1.42854E1,6.7541504E0,3.4889038E1,1.2179535E1,2.6016718E2,1.1839773E3,3.139043E2,1.6789583E3,3.8354834E2,2.3038135E3,2.9371103E2,2.245816E3,1.8286133E1,7.6348267E0,0E0,0E0,2.0948242E1,3.6635498E1,1.4817273E3,1.0452261E3,9.6962695E2,2.3969297E3,8.4107715E2,1.2608789E2,5.94182E2,2.699995E2,3.722066E2,2.9974414E2,7.731406E2,7.00752E2,6.714512E2,1.2364111E3,5.154831E3,6.040539E2,9.432251E1,1.9598175E1,1.2742996E1,1.4018316E0,3.253241E1,5.9962402E1,9.1634766E1,4.0892822E1,1.0272766E1,0E0,1.0742188E0,6.511983E1,0E0,1.0407471E1,0E0,0E0,1.1794922E1,1.3754395E1,0E0,1.4811401E1,0E0,1.8241895E2,3.164209E1,7.985779E1,2.249939E0,1.1506836E1,7.4365234E-1,3.3869858E0,6.870508E1,5.2830322E1,1.1315527E2,3.3844238E2,4.779149E1,8.978161E0,4.5346924E1,1.385542E2,7.28811E1,4.1622314E1,0E0,0E0,5.039917E0,0E0,9.807861E1,6.588257E1,2.4273666E1,1.6753906E1,4.1657715E1,5.828174E1,0E0,0E0,9.4016785E1,5.8551086E1,2.5200295E0,0E0,1.2288197E2,7.4311646E1,5.6048843E1,6.936197E1,1.1199755E1,8.690186E0,1.1135541E2,6.6269844E1,1.21145065E2,8.4182755E1,8.3710846E1,1.0690376E2,3.8415833E0,0E0,0E0,0E0,7.10849E0,2.0129837E1,1.4202499E0,0E0,0E0,0E0,7.516443E1,5.0309814E1,5.7879883E1,1.7138379E2,1.225075E0,0E0,1.1399992E1,9.130737E0,1.9939209E1,2.499469E1,7.925331E0,2.7754028E1,3.9577832E0,1.04599E1,1.232669E3,1.6910541E2,6.728808E1,2.9097207E3,1.4083398E2,1.2275293E2,3.3969855E2,4.8462524E2,2.7169482E2,1.6687354E2,4.3325757E2,2.2508857E3,2.103874E3,2.5266296E1,